#############################################################################
## Copyright (c) 1996, Carnegie Mellon University, Cambridge University,
## Ronald Rosenfeld and Philip Clarkson
## Version 3, Copyright (c) 2006, Carnegie Mellon University 
## Contributors includes Wen Xu, Ananlada Chotimongkol, 
## David Huggins-Daines, Arthur Chan and Alan Black 
#############################################################################
=============================================================================
===============  This file was produced by the CMU-Cambridge  ===============
===============     Statistical Language Modeling Toolkit     ===============
=============================================================================
This is a 3-gram language model, based on a vocabulary of 1454 words,
  which begins ""what", "(which", "0"...
This is a CLOSED-vocabulary model
  (OOVs eliminated from training data and are forbidden in test data)
Good-Turing discounting was applied.
1-gram frequency of frequency : 631 
2-gram frequency of frequency : 4869 976 364 186 122 82 46 
3-gram frequency of frequency : 9377 918 256 123 73 43 23 
1-gram discounting ratios : 0.00 
2-gram discounting ratios : 0.37 0.53 0.66 0.81 0.80 0.63 0.84 
3-gram discounting ratios : 0.18 0.41 0.64 0.74 0.70 0.62 0.79 
This file is in the ARPA-standard format introduced by Doug Paul.

p(wd3|wd1,wd2)= if(trigram exists)           p_3(wd1,wd2,wd3)
                else if(bigram w1,w2 exists) bo_wt_2(w1,w2)*p(wd3|wd2)
                else                         p(wd3|w2)

p(wd2|wd1)= if(bigram exists) p_2(wd1,wd2)
            else              bo_wt_1(wd1)*p_1(wd2)

All probs and back-off weights (bo_wt) are given in log10 form.

Data formats:

Beginning of data mark: \data\
ngram 1=nr            # number of 1-grams
ngram 2=nr            # number of 2-grams
ngram 3=nr            # number of 3-grams

\1-grams:
p_1     wd_1 bo_wt_1
\2-grams:
p_2     wd_1 wd_2 bo_wt_2
\3-grams:
p_3     wd_1 wd_2 wd_3 

end of data mark: \end\

\data\
ngram 1=1454
ngram 2=6896
ngram 3=10898

\1-grams:
-99.9990 "what	-0.1753
-99.9990 (which	-0.1828
-2.3458 0	-0.5706
-99.9990 0)	-0.1958
-2.4048 1	-0.6625
-99.9990 1%	-0.1863
-3.2421 1+h	-0.1751
-99.9990 1/h--	-0.1910
-3.6680 10	-0.1707
-99.9990 1000	-0.1960
-3.3001 12	-0.2014
-3.8441 15	-0.1723
-3.1909 16	-0.4153
-2.9691 16h	-0.2947
-3.6680 16t	-0.4697
-3.8441 18	-0.1970
-99.9990 19	-0.1753
-2.3970 2	-0.4603
-99.9990 2000	-0.1975
-3.6680 23	-0.1581
-3.0660 25	-0.4382
-3.8441 2ab	-0.3282
-3.0312 2x	-0.3096
-2.7138 3	-0.3409
-2.8899 32	-0.6921
-99.9990 32h	-0.1948
-3.8441 32t	-0.1721
-3.8441 33	-0.3088
-99.9990 3a	-0.1956
-99.9990 3ab	-0.1956
-3.2421 3x	-0.6456
-3.2421 4	-0.2467
-3.8441 48	-0.3307
-99.9990 4a	-0.1973
-99.9990 4ab	-0.1973
-2.9147 5	-0.4072
-99.9990 5/3	-0.1753
-3.5431 6	-0.2560
-99.9990 64	-0.1972
-99.9990 6a	-0.1956
-3.3001 8	-0.4755
-99.9990 9	-0.1972
-3.8441 90	-0.3310
-99.9990 99%	-0.1863
-1.3026 </s>	-1.9264
-1.3146 <s>	-0.8840
-99.9990 <s>"	-0.1961
-99.9990 <s>01	-0.1753
-3.3001 <s>1	-0.1650
-99.9990 <s>301	-0.1753
-99.9990 <s>36	-0.1972
-3.6680 <s>452	-0.2596
-3.8441 <s>477	-0.3088
-3.8441 <s>6	-0.3163
-99.9990 <s>602	-0.1753
-99.9990 <s>Hi	-0.1753
-3.5431 A	-0.1957
-3.8441 After	-0.3298
-3.2421 Again	-0.2094
-3.8441 Algebra	-0.1824
-3.3670 All	-0.1726
-99.9990 Among	-0.1952
-2.1674 And	-0.4334
-3.8441 Another	-0.3291
-99.9990 Answer:	-0.1975
-99.9990 Arent	-0.1886
-3.5431 As	-0.1686
-3.3001 At	-0.5514
-3.3670 Because	-0.4326
-2.8229 But	-0.3394
-2.9691 By	-1.3786
-3.2421 Calculus	-0.2301
-99.9990 Carry	-0.1971
-99.9990 Coming	-0.1972
-3.6680 Consequently	-0.1884
-3.6680 Consider	-0.2789
-99.9990 Couldnt	-0.1938
-3.8441 Delta	-0.3255
-99.9990 Derivatives	-0.1910
-99.9990 Descartes	-0.1971
-99.9990 Does	-0.1745
-99.9990 Drawing	-0.1897
-99.9990 Either	-0.1944
-99.9990 Every	-0.1962
-99.9990 Everything	-0.1872
-99.9990 Fact	-0.1973
-99.9990 First	-0.1863
-3.1038 For	-0.5065
-99.9990 From	-0.1745
-3.6680 Geometry	-0.1698
-3.8441 Given	-0.1876
-99.9990 Here	-0.1964
-99.9990 Hopefully	-0.1944
-3.4462 How	-0.4070
-3.8441 However	-0.3278
-2.0624 I	-0.4470
-3.8441 Id	-0.3301
-2.9990 If	-0.3987
-3.3670 Ill	-0.1947
-3.1038 Im	-0.3500
-2.4128 In	-1.3014
-3.8441 Instead	-0.1824
-99.9990 Is	-0.1872
-3.3670 It	-0.1946
-3.8441 Its	-0.3301
-3.6680 Ive	-0.1969
-99.9990 Just	-0.1897
-99.9990 Knowing	-0.1872
-3.4462 Let	-0.5529
-3.0660 Lets	-0.2303
-99.9990 Limits	-0.1753
-99.9990 Look	-0.1961
-3.8441 Many	-0.1893
-3.8441 My	-0.1968
-2.9147 Namely	-0.2554
-3.1452 Notice	-0.3416
-2.6137 Now	-0.2574
-3.4462 OK	-0.2126
-3.8441 Observe	-0.3207
-99.9990 Obviously	-0.1950
-3.6680 Of	-0.4711
-3.5431 Oh	-0.2407
-3.1038 On	-1.0562
-99.9990 Once	-0.1974
-3.6680 One	-0.1965
-3.8441 Or	-0.1970
-3.4462 Our	-0.2455
-99.9990 Outside	-0.1872
-99.9990 Point	-0.1828
-99.9990 Polyanna	-0.1973
-99.9990 Profits	-0.1975
-99.9990 Pythagorean	-0.1974
-99.9990 Question:	-0.1975
-99.9990 Remembering	-0.1971
-99.9990 Replace	-0.1920
-3.2421 S	-0.4088
-3.5431 See	-0.2273
-99.9990 Since	-0.1893
-3.0660 So	-0.2941
-99.9990 Some	-0.1975
-99.9990 Sort	-0.1863
-99.9990 Square	-0.1974
-99.9990 Subtract	-0.1975
-3.8441 Suppose	-0.1934
-99.9990 Tangent	-0.1863
-3.0660 That	-0.1991
-2.6267 The	-0.2840
-3.5431 Then	-0.3182
-3.6680 There	-0.1791
-3.6680 Therefore	-0.1653
-99.9990 Theres	-0.1974
-3.8441 These	-0.3295
-99.9990 Thinking	-0.1863
-3.2421 This	-0.4175
-99.9990 Though	-0.1886
-3.8441 Three	-0.1928
-3.4462 To	-0.1888
-99.9990 Two	-0.1965
-99.9990 Undefined	-0.1975
-99.9990 Unfortunately	-0.1965
-2.7302 We	-0.2911
-2.8027 Well	-0.1762
-3.8441 Were	-0.1974
-2.9147 What	-0.4817
-3.3670 When	-0.2410
-99.9990 Where	-0.1966
-3.5431 Why	-0.1822
-3.8441 Yes	-0.3088
-2.6980 You	-1.1629
-1.7455 a	-0.3424
-99.9990 ab	-0.1910
-99.9990 abbreviated	-0.1925
-99.9990 ability	-0.1962
-3.6680 able	-0.4594
-2.7472 about	-0.1112
-3.8441 above	-0.3228
-2.9691 absolute	-1.1698
-99.9990 absolutevalue	-0.1863
-3.8441 abstract	-0.1943
-99.9990 accuracy	-0.1872
-99.9990 accurate	-0.1853
-3.8441 actually	-0.1893
-3.5431 add	-0.1707
-99.9990 adding	-0.1959
-99.9990 admit	-0.1925
-99.9990 advantage	-0.1828
-2.5889 again	-0.2512
-3.8441 agree	-0.1853
-99.9990 agreed	-0.1872
-99.9990 ah-ha	-0.1974
-3.5431 aid	-0.1565
-3.8441 aim	-0.3163
-3.5431 algebra	-0.1832
-3.4462 algebraic	-0.3398
-3.3001 algebraically	-0.1871
-99.9990 alien	-0.1965
-2.5431 all	-0.1927
-3.3670 allow	-0.2962
-3.3001 allowed	-0.3803
-3.8441 allowing	-0.1917
-99.9990 allows	-0.1969
-3.6680 almost	-0.2806
-3.5431 along	-0.1650
-3.8441 already	-0.1965
-2.9147 also	-0.1520
-3.6680 always	-0.1969
-3.8441 am	-0.1952
-3.8441 amazing	-0.1955
-99.9990 ambiguous	-0.1970
-3.8441 amount	-0.1635
-2.6828 an	-0.2655
-99.9990 analogy	-0.1753
-3.4462 analysis	-0.1663
-3.0312 analytic	-0.2508
-3.5431 analytical	-0.2582
-3.2421 analytically	-0.2169
-99.9990 anatomically	-0.1925
-1.8229 and	-0.2261
-99.9990 anecdote	-0.1863
-3.1452 angle	-0.2665
-99.9990 angles--	-0.1936
-3.3670 another	-0.2317
-2.8229 answer	-0.3188
-99.9990 answers	-0.1853
-2.7834 any	-0.3198
-3.6680 anything	-0.2806
-99.9990 apart	-0.1963
-99.9990 apparently	-0.1971
-99.9990 appealing	-0.1853
-99.9990 appearance	-0.1925
-3.5431 appears	-0.2352
-3.4462 approach	-0.1432
-99.9990 approached	-0.1897
-3.1038 approaches	-0.4732
-99.9990 approximated	-0.1943
-3.3670 approximation	-0.1991
-99.9990 approximations	-0.1886
-3.2421 arbitrarily	-0.4235
-99.9990 arbitrary	-0.1962
-2.4550 are	-0.2008
-3.3670 area	-0.1942
-99.9990 arises	-0.1943
-3.8441 arithmetic	-0.1970
-3.8441 around	-0.1659
-99.9990 arrived	-0.1961
-2.1323 as	-0.4615
-99.9990 aside	-0.1962
-99.9990 ask	-0.1828
-3.6680 asked	-0.2646
-3.8441 asking	-0.1909
-99.9990 assignment	-0.1925
-99.9990 assignments	-0.1872
-99.9990 associate	-0.1962
-3.8441 assume	-0.3207
-99.9990 assumes	-0.1893
-3.8441 assuming	-0.1644
-2.4824 at	-0.4609
-99.9990 attention	-0.1853
-99.9990 attribute	-0.1853
-99.9990 automatically	-0.1974
-99.9990 available	-0.1950
-2.7302 average	-0.8710
-3.8441 away	-0.1739
-99.9990 awful	-0.1975
-2.7302 b	-0.5060
-3.1038 back	-0.7318
-3.8441 backbone	-0.3198
-99.9990 background	-0.1968
-99.9990 backwards	-0.1893
-99.9990 badly	-0.1943
-99.9990 bails	-0.1969
-3.2421 ball	-0.2643
-99.9990 base	-0.1910
-99.9990 basic	-0.1970
-2.0998 be	-0.2727
-99.9990 bearing	-0.1959
-99.9990 beauty	-0.1863
-3.6680 became	-0.1967
-3.0660 because	-0.2823
-3.8441 become	-0.1974
-3.1038 becomes	-0.2208
-3.1909 been	-0.2017
-3.0660 before	-0.2769
-3.8441 begin	-0.3188
-99.9990 begins	-0.1952
-3.0660 being	-0.3218
-3.4462 believe	-0.5352
-99.9990 believed	-0.1872
-99.9990 belittling	-0.1745
-3.4462 belong	-0.5384
-3.5431 belongs	-0.7073
-3.4462 below	-0.3782
-99.9990 best	-0.1863
-3.5431 better	-0.1924
-2.8229 between	-0.2207
-99.9990 big	-0.1975
-3.8441 bigger	-0.1892
-99.9990 biggest	-0.1960
-3.8441 binomial	-0.3309
-3.1452 bit	-0.1392
-99.9990 black	-0.1936
-99.9990 blindly	-0.1975
-3.8441 block	-0.1720
-3.8441 blows	-0.3301
-3.8441 board	-0.1963
-99.9990 body	-0.1925
-99.9990 book	-0.1975
-3.4462 both	-0.2096
-99.9990 bracketed	-0.1973
-99.9990 brief	-0.1975
-3.6680 bring	-0.2805
-99.9990 bringing	-0.1971
-3.8441 building	-0.3310
-99.9990 businessman	-0.1973
-2.6137 but	-0.1681
-2.2157 by	-0.4334
-99.9990 bypass	-0.1893
-99.9990 calculus	-0.1961
-2.9691 call	-0.3202
-3.2421 called	-0.2091
-3.5431 came	-0.1944
-2.3743 can	-0.3820
-99.9990 cancel	-0.1966
-99.9990 canceling	-0.1966
-99.9990 cancellation	-0.1964
-3.8441 cannot	-0.3307
-3.3670 cant	-0.3102
-99.9990 care	-0.1863
-99.9990 careful	-0.1947
-99.9990 careless	-0.1753
-99.9990 cares	-0.1972
-99.9990 carry	-0.1745
-2.8664 case	-0.1893
-3.5431 cases	-0.1799
-3.6680 certain	-0.1973
-3.4462 certainly	-0.1707
-99.9990 chances	-0.1960
-3.6680 change	-0.1530
-99.9990 changes	-0.1745
-99.9990 changing	-0.1745
-99.9990 cheat	-0.1964
-99.9990 check	-0.1971
-3.8441 chocolate	-0.1737
-99.9990 choice	-0.1863
-3.6680 choose	-0.1926
-3.8441 choosing	-0.1911
-99.9990 chosen	-0.1968
-3.1452 circle	-0.3213
-3.5431 clear	-0.1724
-99.9990 clears	-0.1967
-2.8664 close	-1.0658
-3.5431 closer	-0.3120
-99.9990 coincide	-0.1973
-3.8441 colloquially	-0.1970
-2.9990 come	-0.3974
-3.4462 comes	-0.5527
-99.9990 coming	-0.1958
-2.5017 comma	-0.6857
-99.9990 common	-0.1753
-99.9990 comparison	-0.1853
-99.9990 complete	-0.1893
-99.9990 completely	-0.1972
-3.8441 completing	-0.3080
-3.6680 complicated	-0.1944
-3.4462 computation	-0.1281
-99.9990 computational	-0.1975
-99.9990 computationally	-0.1886
-2.9990 compute	-0.3669
-99.9990 computed	-0.1745
-3.3001 concept	-0.2191
-3.5431 concepts	-0.2451
-99.9990 concerned	-0.1962
-3.8441 conclude	-0.1872
-99.9990 concrete	-0.1975
-99.9990 cone	-0.1910
-99.9990 configuration	-0.1863
-99.9990 confuse	-0.1745
-3.6680 consider	-0.2505
-99.9990 consisted	-0.1863
-99.9990 contemplating	-0.1910
-3.4462 continue	-0.2184
-3.8441 conveniently	-0.3260
-99.9990 conventional	-0.1975
-99.9990 coordinate	-0.1971
-99.9990 coordinates	-0.1957
-99.9990 cord	-0.1974
-3.8441 correct	-0.1879
-99.9990 correlate	-0.1745
-99.9990 correspond	-0.1853
-99.9990 corresponds	-0.1853
-2.9990 could	-0.2852
-3.8441 couldnt	-0.1705
-3.8441 couldve	-0.3307
-99.9990 counterexample	-0.1828
-2.9147 course	-0.2210
-99.9990 courses	-0.1974
-99.9990 covered	-0.1925
-99.9990 covering	-0.1897
-99.9990 cream	-0.1975
-3.8441 criteria	-0.3293
-99.9990 crosses	-0.1745
-3.6680 crucial	-0.1853
-99.9990 crux	-0.1863
-3.5431 cube	-0.2349
-3.3001 cubed	-0.2271
-3.8441 curriculum	-0.1751
-2.6267 curve	-0.1362
-3.4462 curves	-0.2200
-99.9990 customary	-0.1853
-99.9990 cut	-0.1936
-99.9990 cylinder	-0.1925
-3.6680 danger	-0.1716
-3.5431 deal	-0.3184
-99.9990 dealing	-0.1962
-99.9990 deals	-0.1962
-99.9990 deceptive	-0.1943
-99.9990 decrease	-0.1753
-99.9990 decreasing	-0.1910
-99.9990 deduce	-0.1968
-3.3670 define	-0.4460
-99.9990 defined	-0.1853
-99.9990 defining	-0.1973
-2.9147 definition	-0.3226
-99.9990 definitions	-0.1863
-3.8441 degrees	-0.1598
-2.4639 delta	-0.5544
-99.9990 deltas	-0.1974
-3.5431 denominator	-0.1616
-3.6680 depend	-0.4701
-99.9990 depended	-0.1959
-99.9990 depends	-0.1959
-99.9990 depth	-0.1925
-3.8441 derivative	-0.1511
-99.9990 derivatives	-0.1910
-3.4462 detail	-0.2184
-99.9990 detail--	-0.1925
-99.9990 determined	-0.1949
-99.9990 develop	-0.1975
-99.9990 development	-0.1863
-99.9990 develops	-0.1753
-3.8441 device	-0.1804
-99.9990 devote	-0.1745
-3.0660 diagram	-0.1772
-2.9990 did	-0.2913
-3.3001 difference	-0.2407
-3.1038 different	-0.2026
-3.5431 differential	-0.7193
-99.9990 differently	-0.1753
-3.5431 difficult	-0.1746
-3.5431 difficulty	-0.1589
-3.6680 dimension	-0.2689
-3.5431 dimensions	-0.2232
-99.9990 discourse	-0.1947
-3.8441 discussion	-0.1899
-99.9990 displacement	-0.1753
-2.9410 distance	-0.2198
-3.8441 distances	-0.1824
-3.6680 distinguish	-0.1873
-99.9990 distinguishing	-0.1927
-3.8441 distort	-0.1659
-3.1038 divide	-0.2964
-3.1452 divided	-1.1945
-99.9990 dividing	-0.1949
-2.3323 do	-0.4559
-3.6680 document	-0.1592
-3.1909 does	-0.3737
-3.6680 doesnt	-0.1868
-3.6680 doing	-0.1658
-3.3001 done	-0.2675
-3.0312 dont	-0.1984
-99.9990 doubled	-0.1972
-3.0312 down	-0.2637
-2.9410 draw	-0.3434
-99.9990 drawing	-0.1745
-3.5431 drawn	-0.1606
-99.9990 drew	-0.1958
-99.9990 drop	-0.1745
-99.9990 dropped	-0.1753
-99.9990 duck	-0.1745
-3.4462 during	-0.3075
-3.6680 each	-0.2700
-99.9990 earlier	-0.1872
-3.8441 early	-0.3260
-3.5431 easier	-0.2205
-99.9990 easiest	-0.1957
-3.8441 easily	-0.1924
-3.4462 easy	-0.6762
-99.9990 effect	-0.1938
-99.9990 eight	-0.1974
-3.5431 either	-0.1843
-99.9990 electricity	-0.1975
-99.9990 elementary	-0.1975
-99.9990 else	-0.1925
-99.9990 emphasis	-0.1966
-3.8441 emphasize	-0.1788
-3.6680 emphasized	-0.4666
-3.6680 end	-0.2683
-3.2421 enough	-0.2639
-3.8441 entire	-0.1972
-99.9990 entitled	-0.1950
-99.9990 entries	-0.1974
-2.3256 epsilon	-0.6603
-99.9990 epsilons	-0.1910
-2.6137 equal	-0.3901
-99.9990 equally	-0.1972
-2.3390 equals	-0.5213
-99.9990 equating	-0.1975
-3.0312 equation	-0.5959
-3.1909 equations	-0.2387
-99.9990 equivalent	-0.1853
-99.9990 error	-0.1853
-3.8441 establish	-0.3080
-99.9990 estimates	-0.1753
-99.9990 evaluate	-0.1927
-3.5431 even	-0.2537
-99.9990 ever	-0.1972
-3.6680 every	-0.2801
-99.9990 everything	-0.1975
-99.9990 evidence	-0.1938
-3.8441 evident	-0.1963
-3.3001 exactly	-0.3041
-2.8441 example	-0.1895
-99.9990 example--	-0.1962
-3.5431 except	-0.1897
-99.9990 excess	-0.1863
-3.8441 exercise	-0.1644
-3.6680 exercises	-0.4495
-99.9990 exhibited	-0.1745
-3.8441 exploit	-0.1659
-99.9990 explore	-0.1893
-99.9990 exponent	-0.1910
-99.9990 express	-0.1745
-3.3001 expression	-0.1861
-3.8441 expressions	-0.1960
-3.6680 extreme	-0.1642
-3.8441 extremes	-0.1947
-99.9990 eye	-0.1975
-99.9990 eyes	-0.1863
-2.6828 f	-1.6478
-2.8899 fact	-0.1882
-99.9990 factor	-0.1893
-99.9990 factored	-0.1943
-3.8441 fairly	-0.1974
-99.9990 fall	-0.1970
-3.3001 fallen	-0.2219
-3.4462 falling	-0.1931
-3.3670 falls	-0.1678
-3.8441 familiar	-0.1739
-3.6680 fancy	-0.2799
-3.4462 far	-0.1342
-3.8441 fast	-0.3163
-99.9990 feed	-0.1925
-99.9990 feel	-0.1974
-3.6680 feeling	-0.1821
-3.1038 feet	-0.3086
-99.9990 fellow	-0.1975
-99.9990 figure	-0.1893
-2.9990 find	-0.3875
-99.9990 find--	-0.1970
-3.5431 finding	-0.3540
-3.1909 first	-0.2203
-3.1909 five	-0.1432
-99.9990 fixed	-0.1910
-99.9990 flavor	-0.1910
-99.9990 flick	-0.1745
-3.6680 following	-0.1681
-3.8441 follows	-0.3088
-2.4048 for	-0.4489
-99.9990 forget	-0.1745
-99.9990 form	-0.1947
-3.8441 formal	-0.3305
-99.9990 formally	-0.1965
-99.9990 formula	-0.1958
-99.9990 fortunately	-0.1974
-3.3670 found	-0.2284
-2.8027 four	-0.5628
-3.3001 fourth	-0.3904
-3.8441 fraction	-0.1956
-99.9990 fractions	-0.1938
-3.6680 freely	-0.2766
-3.6680 friend	-0.2704
-2.6538 from	-0.3531
-99.9990 from--	-0.1968
-3.5431 function	-0.1722
-3.5431 functions	-0.1632
-3.8441 fundamental	-0.1969
-3.8441 further	-0.1905
-99.9990 furthest	-0.1953
-99.9990 gadget	-0.1753
-99.9990 games	-0.1753
-3.6680 general	-0.1931
-99.9990 generalization	-0.1863
-99.9990 generalize	-0.1893
-99.9990 genuinely	-0.1974
-2.9410 geometric	-0.2950
-3.4462 geometrically	-0.3178
-2.9990 geometry	-0.1746
-2.6011 get	-0.2446
-3.0312 gets	-0.3182
-3.1038 give	-0.2978
-3.1038 given	-0.2930
-3.3001 gives	-0.3808
-3.8441 glance	-0.1925
-2.9691 go	-0.4213
-3.6680 goes	-0.2812
-2.9410 going	-1.0864
-99.9990 gone	-0.1893
-3.4462 good	-0.1747
-3.8441 goodbye	-0.3088
-3.3670 got	-0.1789
-99.9990 grade	-0.1974
-3.1909 graph	-0.1576
-3.5431 graphs	-0.1537
-3.3001 great	-0.3369
-2.9990 greater	-1.1739
-3.8441 groups	-0.1731
-99.9990 guarantee	-0.1872
-3.8441 guess	-0.1739
-99.9990 guy	-0.1972
-2.8027 h	-0.2651
-99.9990 habit	-0.1863
-2.8899 had	-0.2058
-3.8441 half	-0.1848
-99.9990 half-width	-0.1975
-3.4462 halfway	-0.4082
-3.0312 hand	-0.2304
-3.5431 handle	-0.1671
-3.5431 happen	-0.1539
-3.5431 happened	-0.2448
-3.0660 happening	-0.3129
-2.9990 happens	-0.5821
-99.9990 hard	-0.1974
-99.9990 hardship	-0.1961
-99.9990 harmless	-0.1943
-2.9147 has	-0.4177
-2.3670 have	-0.2967
-3.8441 having	-0.1821
-3.5431 he	-0.3845
-99.9990 head	-0.1910
-99.9990 heck	-0.1863
-3.1909 height	-0.3360
-99.9990 heights	-0.1975
-3.8441 help	-0.1971
-3.8441 helps	-0.3304
-3.6680 hence	-0.1933
-2.1814 here	-0.3957
-3.8441 here--	-0.1760
-3.3001 heres	-0.2465
-99.9990 hey	-0.1886
-3.6680 high	-0.4716
-3.8441 higher	-0.3289
-99.9990 highly	-0.1975
-99.9990 him	-0.1974
-3.8441 hinges	-0.3294
-3.8441 hint	-0.1854
-3.5431 his	-0.1971
-3.8441 history	-0.3198
-99.9990 holding	-0.1972
-99.9990 home	-0.1910
-3.8441 hope	-0.1769
-3.6680 hopefully	-0.1732
-99.9990 horizontal	-0.1967
-2.5431 how	-0.3902
-99.9990 however	-0.1872
-99.9990 hypocrites	-0.1925
-3.8441 ice	-0.1975
-2.9691 idea	-0.3349
-3.8441 identification	-0.1969
-99.9990 identifications	-0.1943
-3.4462 identify	-0.2224
-99.9990 identifying	-0.1975
-2.1814 if	-0.8366
-99.9990 illustrate	-0.1893
-99.9990 imagine	-0.1965
-99.9990 importance	-0.1863
-3.1452 important	-0.1664
-99.9990 impossible	-0.1958
-1.9357 in	-0.4843
-99.9990 inaccuracy	-0.1965
-99.9990 inches	-0.1974
-99.9990 incorporate	-0.1745
-99.9990 increase	-0.1965
-99.9990 increases	-0.1745
-3.5431 increasing	-0.1834
-99.9990 indeed	-0.1972
-3.6680 independent	-0.2816
-99.9990 indeterminate	-0.1753
-99.9990 indicate	-0.1745
-3.5431 inequalities	-0.1881
-3.5431 inequality	-0.1610
-99.9990 infinitely	-0.1973
-99.9990 infinity	-0.1943
-99.9990 influence	-0.1959
-99.9990 information	-0.1753
-3.0660 input	-0.2254
-3.4462 inside	-0.5236
-3.8441 insight	-0.3278
-99.9990 insights	-0.1872
-3.8441 instant	-0.1859
-3.2421 instantaneous	-0.5193
-3.8441 instead	-0.1853
-99.9990 intently	-0.1975
-3.6680 interested	-0.4666
-3.4462 interesting	-0.2436
-3.6680 interpolation	-0.2596
-3.4462 interpretation	-0.1563
-3.8441 intersect	-0.1738
-99.9990 intersecting	-0.1753
-3.8441 intersection	-0.1853
-2.9410 interval	-0.3709
-3.8441 intervals	-0.1840
-3.0660 into	-0.3103
-99.9990 introduce	-0.1745
-99.9990 introductory	-0.1972
-3.5431 intuition	-0.1749
-3.4462 intuitive	-0.1970
-3.3001 intuitively	-0.1791
-3.6680 investigate	-0.1649
-99.9990 investigating	-0.1967
-3.8441 involved	-0.1896
-3.8441 involves	-0.1662
-3.8441 ironclad	-0.1934
-1.4768 is	-0.3117
-99.9990 is--	-0.1910
-3.5431 isnt	-0.1767
-99.9990 issue	-0.1965
-2.2421 it	-0.2910
-2.7834 its	-0.2320
-3.1909 itself	-0.2472
-99.9990 joined	-0.1966
-99.9990 joining	-0.1745
-3.6680 joins	-0.2584
-99.9990 joints	-0.1972
-2.7302 just	-0.1994
-99.9990 justify	-0.1927
-3.8441 keep	-0.1692
-3.6680 key	-0.1953
-99.9990 kind	-0.1863
-2.6137 know	-0.3019
-99.9990 knowing	-0.1745
-3.8441 known	-0.3278
-2.8441 l	-0.3034
-3.5431 l1	-0.3785
-3.5431 l2	-0.1844
-99.9990 label	-0.1973
-3.8441 labeled	-0.1667
-3.1909 language	-0.5056
-99.9990 larger	-0.1970
-99.9990 last	-0.1962
-99.9990 later	-0.1943
-99.9990 law	-0.1872
-3.8441 lawyer	-0.1910
-99.9990 layman	-0.1853
-3.8441 learn	-0.3188
-3.8441 learned	-0.1700
-99.9990 learning	-0.1974
-99.9990 least	-0.1973
-99.9990 leave	-0.1971
-99.9990 leaving	-0.1745
-3.1452 lecture	-0.1768
-99.9990 lecture:	-0.1973
-3.8441 lectures	-0.1962
-99.9990 legal	-0.1974
-99.9990 legs	-0.1745
-99.9990 lend	-0.1973
-3.3670 length	-0.2510
-2.6011 less	-1.2389
-3.6680 lesson	-0.1905
-3.1909 let	-0.3047
-2.7472 lets	-0.2834
-99.9990 letter	-0.1974
-99.9990 letting	-0.1920
-99.9990 lie	-0.1974
-99.9990 lie--	-0.1973
-99.9990 life	-0.1925
-2.6538 like	-0.4050
-99.9990 likelets	-0.1967
-99.9990 likelihood	-0.1872
-2.7650 limit	-0.3553
-99.9990 limiting	-0.1975
-3.3001 limits	-0.1993
-2.2531 line	-0.4418
-2.7302 lines	-0.4227
-2.9410 little	-0.5267
-3.6680 locate	-0.2505
-99.9990 located	-0.1897
-99.9990 locating	-0.1897
-99.9990 locked	-0.1975
-3.1038 log	-1.2276
-99.9990 logarithm	-0.1974
-99.9990 logical	-0.1975
-3.3670 long	-0.3313
-99.9990 longer	-0.1957
-2.8899 look	-0.6647
-3.5431 looked	-0.3843
-99.9990 lookit	-0.1970
-3.6680 looks	-0.1876
-99.9990 loopholes	-0.1925
-99.9990 loss	-0.1958
-3.8441 lot	-0.1948
-99.9990 low	-0.1953
-3.6680 m	-0.1374
-3.3001 m1	-0.2696
-3.3001 m2	-0.1672
-3.6680 machine	-0.1954
-3.5431 made	-0.2479
-3.5431 main	-0.2579
-99.9990 major	-0.1975
-2.9410 make	-0.2403
-3.1909 makes	-0.3228
-99.9990 making	-0.1975
-3.8441 man	-0.1962
-99.9990 mandatory	-0.1943
-3.2421 many	-0.2685
-3.8441 mark	-0.3281
-99.9990 marks	-0.1950
-99.9990 match	-0.1897
-3.8441 mathematical	-0.1969
-99.9990 mathematician	-0.1973
-3.6680 mathematics	-0.1824
-3.6680 matter	-0.1920
-3.1038 may	-0.2542
-99.9990 maybe	-0.1897
-2.9990 me	-0.1566
-2.9990 mean	-0.1912
-3.8441 meaning	-0.3198
-99.9990 meaningful	-0.1958
-2.8229 means	-0.2947
-3.3670 measure	-0.2073
-3.8441 measurements	-0.1892
-99.9990 mechanically	-0.1971
-99.9990 meet	-0.1745
-3.8441 member	-0.1757
-99.9990 membership	-0.1753
-3.5431 mentioned	-0.2527
-99.9990 mess	-0.1949
-99.9990 messier	-0.1947
-3.6680 might	-0.1959
-99.9990 mileage	-0.1938
-3.8441 mimic	-0.1743
-99.9990 mind	-0.1872
-99.9990 minds	-0.1886
-3.6680 minimum	-0.4605
-2.1861 minus	-0.7624
-99.9990 misinterpretations	-0.1974
-99.9990 mistake	-0.1910
-99.9990 model	-0.1745
-2.6980 more	-0.2623
-99.9990 most	-0.1975
-99.9990 motion	-0.1745
-99.9990 motivates	-0.1970
-3.8441 move	-0.1924
-99.9990 ms	-0.1910
-3.1452 much	-0.3606
-3.8441 multiplied	-0.3284
-3.8441 multiply	-0.3207
-2.9990 must	-0.3395
-2.9990 my	-0.2258
-3.4462 name	-0.2251
-3.5431 named	-0.2566
-3.5431 namely	-0.2179
-3.8441 natural	-0.1946
-99.9990 naturally	-0.1975
-3.4462 near	-0.2342
-3.8441 nearly	-0.1934
-99.9990 neat	-0.1973
-99.9990 neatly	-0.1958
-3.0312 need	-0.1980
-3.8441 needed	-0.1869
-99.9990 needs	-0.1853
-3.2421 negative	-0.1428
-3.5431 neighborhood	-0.2387
-3.5431 never	-0.1917
-2.9990 next	-0.2431
-3.5431 nice	-0.2585
-3.1452 nine	-0.4064
-2.8899 no	-0.2741
-99.9990 non-single	-0.1968
-99.9990 non-zero	-0.1975
-99.9990 nonsense	-0.1863
-2.2759 not	-0.3195
-3.6680 notation	-0.1543
-99.9990 note	-0.1947
-3.5431 nothing	-0.1729
-2.5017 notice	-0.5768
-99.9990 noticed	-0.1925
-2.6137 now	-0.1431
-2.8027 number	-0.1647
-99.9990 number--	-0.1910
-99.9990 numbered	-0.1971
-2.9691 numbers	-0.1991
-3.6680 numerator	-0.1631
-99.9990 numerical	-0.1974
-3.8441 obey	-0.1662
-3.3001 object	-0.4393
-99.9990 objection	-0.1872
-3.6680 objective	-0.1750
-99.9990 objectively	-0.1753
-99.9990 obliterated	-0.1753
-99.9990 obliteration	-0.1959
-3.2421 observe	-0.3510
-99.9990 obtained	-0.1958
-3.6680 obvious	-0.2714
-3.8441 obviously	-0.1937
-1.5937 of	-0.4955
-3.6680 off	-0.4487
-3.8441 often	-0.1954
-3.5431 old	-0.2589
-99.9990 ominous	-0.1975
-2.4292 on	-0.5747
-3.8441 once	-0.1804
-2.1495 one	-0.4481
-2.8229 only	-0.2600
-2.6400 or	-0.2313
-99.9990 order	-0.1872
-3.1452 ordered	-0.6641
-99.9990 origin	-0.1853
-3.5431 original	-0.2570
-2.2701 other	-0.7458
-99.9990 otherwise	-0.1975
-2.3001 our	-0.2568
-3.0312 out	-0.3151
-99.9990 outlined	-0.1893
-3.4462 output	-0.1726
-3.8441 outside	-0.1635
-99.9990 oven	-0.1910
-2.3970 over	-0.6077
-99.9990 overview	-0.1753
-99.9990 own	-0.1957
-3.1038 p	-0.5139
-99.9990 pack	-0.1959
-2.9691 pair	-0.2967
-3.3670 pairs	-0.1805
-99.9990 parabola	-0.1753
-3.0312 parallel	-0.2695
-99.9990 parenthetical	-0.1973
-99.9990 part	-0.1973
-99.9990 particle	-0.1970
-2.9410 particular	-0.2321
-3.5431 parts	-0.1642
-99.9990 passed	-0.1973
-99.9990 passes	-0.1973
-99.9990 pay	-0.1975
-3.8441 people	-0.1939
-3.6680 per	-0.4714
-3.6680 perhaps	-0.1847
-99.9990 permissible	-0.1828
-3.6680 perpendicular	-0.1497
-99.9990 person	-0.1972
-2.7472 phi	-1.0764
-99.9990 philosophically	-0.1925
-99.9990 physical	-0.1975
-3.3670 pi	-0.2317
-3.1038 pick	-0.2242
-3.8441 picked	-0.1963
-99.9990 picking	-0.1745
-3.5431 pictorially	-0.1449
-2.5541 picture	-0.5605
-3.1909 pictures	-0.3266
-3.8441 piece	-0.3198
-3.6680 pieces	-0.1831
-3.8441 place	-0.1834
-99.9990 plain	-0.1971
-3.3670 plane	-0.2813
-99.9990 playing	-0.1975
-3.8441 plot	-0.1893
-3.8441 plotting	-0.1753
-99.9990 plug	-0.1872
-2.1958 plus	-0.7576
-2.2818 point	-0.3344
-2.8899 points	-0.1748
-3.8441 position	-0.1855
-2.9410 positive	-0.4114
-99.9990 possibilities	-0.1753
-3.8441 possibility	-0.3163
-3.1038 power	-0.3510
-99.9990 pre-calculus	-0.1975
-99.9990 precise	-0.1927
-3.3670 precisely	-0.4432
-99.9990 predicament	-0.1872
-3.8441 prefer	-0.3188
-99.9990 presentation	-0.1971
-3.8441 pretty	-0.1974
-3.5431 previous	-0.1971
-99.9990 probability	-0.1828
-3.6680 probably	-0.1888
-2.8441 problem	-0.1556
-3.5431 problems	-0.1813
-3.8441 procedure	-0.1939
-99.9990 procedures	-0.1910
-99.9990 proceed	-0.1853
-99.9990 proceeds	-0.1966
-99.9990 process	-0.1975
-3.5431 product	-0.2325
-99.9990 professor	-0.1973
-3.8441 profit	-0.1925
-3.4462 profits	-0.2423
-99.9990 profound	-0.1943
-3.6680 project	-0.2797
-3.8441 projecting	-0.3306
-99.9990 projects	-0.1967
-99.9990 properties	-0.1863
-99.9990 proportional	-0.1974
-99.9990 provided	-0.1936
-3.8441 pull	-0.1889
-99.9990 purely	-0.1971
-99.9990 put	-0.1897
-99.9990 putting	-0.1745
-3.1909 q	-0.2150
-2.8441 question	-0.2964
-99.9990 quickie	-0.1944
-3.1038 quite	-0.1850
-3.6680 quotient	-0.1732
-3.4462 r	-0.2909
-3.8441 radius	-0.3198
-3.6680 raise	-0.1504
-3.8441 random	-0.1804
-99.9990 range	-0.1947
-99.9990 rapid	-0.1965
-2.8899 rate	-0.7792
-3.3670 rather	-0.1885
-3.4462 ratio	-0.1926
-99.9990 rationalization	-0.1853
-99.9990 ratios	-0.1753
-3.6680 read	-0.2711
-99.9990 readable	-0.1753
-3.8441 reading	-0.1975
-99.9990 real	-0.1975
-99.9990 realize	-0.1963
-3.5431 really	-0.1944
-3.2421 reason	-0.2725
-3.8441 reasonably	-0.3304
-99.9990 reasons	-0.1753
-3.8441 recall	-0.1963
-3.6680 recipe	-0.1842
-3.8441 recipes	-0.1871
-99.9990 reciprocal	-0.1863
-99.9990 recognize	-0.1872
-3.6680 recourse	-0.2672
-99.9990 reduced	-0.1753
-99.9990 refer	-0.1853
-99.9990 reference	-0.1853
-99.9990 referred	-0.1853
-99.9990 regardless	-0.1863
-3.8441 region	-0.3281
-99.9990 regions	-0.1925
-99.9990 related	-0.1853
-3.6680 relationship	-0.1631
-99.9990 relinquish	-0.1753
-99.9990 remainder	-0.1863
-3.6680 remember	-0.1880
-99.9990 reminded	-0.1863
-99.9990 reminds	-0.1936
-99.9990 repeated	-0.1925
-3.3001 replace	-0.3862
-99.9990 replaced	-0.1920
-3.8441 replacing	-0.1871
-99.9990 represent	-0.1745
-99.9990 required	-0.1974
-99.9990 respect	-0.1853
-3.2421 result	-0.4532
-3.8441 resulting	-0.1950
-3.5431 results	-0.1574
-3.8441 return	-0.3188
-99.9990 reuse	-0.1745
-3.8441 review	-0.1841
-99.9990 revisit	-0.1954
-99.9990 revisited	-0.1970
-3.8441 rewrite	-0.1944
-3.3001 right	-0.2599
-3.1909 rigorous	-0.2475
-99.9990 rigorously	-0.1828
-3.2421 rise	-0.1741
-99.9990 risen	-0.1893
-99.9990 rises	-0.1753
-3.5431 rising	-0.2300
-3.0660 root	-0.8149
-99.9990 roots	-0.1960
-3.8441 rose	-0.3088
-99.9990 rough	-0.1975
-99.9990 roughly	-0.1975
-99.9990 rounding	-0.1974
-99.9990 rule	-0.1975
-3.6680 run	-0.1701
-3.1909 s	-0.3095
-99.9990 sacred	-0.1968
-99.9990 safe	-0.1975
-2.9410 said	-0.1364
-2.7472 same	-0.2433
-99.9990 sat	-0.1962
-99.9990 satisfy	-0.1753
-3.8441 saw	-0.1971
-2.5017 say	-0.2848
-2.8027 saying	-0.4202
-3.0660 says	-0.1834
-3.3670 scale	-0.2545
-3.8441 scare	-0.3270
-99.9990 scares	-0.1974
-3.5431 school	-0.1851
-3.2421 second	-0.2242
-99.9990 seconds	-0.1828
-99.9990 secret	-0.1872
-2.2421 see	-0.5202
-3.5431 seem	-0.3005
-3.8441 seemed	-0.1966
-3.3670 seems	-0.3420
-3.8441 segment	-0.1957
-3.8441 self	-0.3310
-99.9990 self-contained	-0.1973
-3.6680 sense	-0.1746
-99.9990 senses	-0.1975
-99.9990 serves	-0.1943
-3.1909 set	-0.2940
-3.3670 sets	-0.2078
-99.9990 several	-0.1975
-3.3001 shall	-0.2135
-3.8441 shape	-0.3198
-99.9990 she	-0.1970
-99.9990 shorter	-0.1974
-3.0312 should	-0.2935
-3.8441 shouldve	-0.3307
-3.3670 show	-0.4600
-99.9990 showed	-0.1936
-3.6680 shows	-0.2733
-3.3001 side	-0.1826
-3.8441 sides	-0.3198
-3.8441 sign	-0.1804
-99.9990 similar	-0.1975
-3.4462 simple	-0.2424
-99.9990 simpler	-0.1954
-99.9990 simplify	-0.1973
-3.3001 simply	-0.3279
-3.6680 simultaneous	-0.2814
-3.1038 since	-0.1534
-3.5431 single	-0.3839
-99.9990 situation	-0.1886
-99.9990 situations	-0.1971
-3.4462 six	-0.3029
-3.3670 size	-0.3463
-3.8441 sketch	-0.1949
-99.9990 sketchy	-0.1910
-3.8441 slant	-0.3198
-3.6680 slanty	-0.1683
-99.9990 slide	-0.1975
-3.3001 slightly	-0.4183
-2.8229 slope	-0.3573
-3.3670 slopes	-0.1746
-3.1452 small	-0.2040
-3.2421 smaller	-0.2830
-2.6538 so	-0.1573
-99.9990 solid	-0.1971
-3.4462 solution	-0.2116
-3.8441 solutions	-0.3080
-3.3001 solve	-0.3849
-99.9990 solved	-0.1959
-3.8441 some	-0.1951
-3.6680 somebody	-0.1963
-3.3670 somehow	-0.4356
-99.9990 someone	-0.1973
-2.8441 something	-0.4474
-99.9990 somethings	-0.1970
-99.9990 sometimes	-0.1886
-3.6680 soon	-0.4685
-99.9990 sore	-0.1938
-3.6680 sort	-0.4605
-99.9990 sound	-0.1897
-3.8441 space	-0.1727
-99.9990 speaking	-0.1753
-99.9990 special	-0.1974
-99.9990 specific	-0.1969
-99.9990 specified	-0.1745
-99.9990 specify	-0.1968
-2.6828 speed	-0.2554
-99.9990 speed--	-0.1950
-3.8441 speeds	-0.1737
-3.8441 spent	-0.1964
-2.7472 square	-0.4540
-2.3528 squared	-0.7656
-3.8441 squares	-0.1745
-99.9990 squaring	-0.1944
-3.8441 stage	-0.1644
-99.9990 stands	-0.1959
-99.9990 staring	-0.1972
-99.9990 start	-0.1962
-99.9990 starting	-0.1962
-99.9990 statement	-0.1828
-99.9990 statements	-0.1965
-99.9990 stay	-0.1969
-99.9990 stays	-0.1745
-3.5431 steep	-0.2290
-99.9990 step	-0.1828
-3.3670 still	-0.1732
-3.8441 stop	-0.1961
-2.6980 straight	-0.9896
-99.9990 stress	-0.1745
-99.9990 stringently	-0.1927
-99.9990 strongly	-0.1753
-99.9990 student	-0.1972
-99.9990 studied	-0.1965
-3.0660 study	-0.2892
-99.9990 studying	-0.1893
-99.9990 stuff	-0.1973
-3.8441 sub	-0.1927
-99.9990 subdivide	-0.1893
-3.8441 subject	-0.1974
-99.9990 subjective	-0.1975
-99.9990 subjectively	-0.1965
-99.9990 subscript	-0.1910
-99.9990 subtitle	-0.1853
-3.8441 subtle	-0.1956
-99.9990 subtlety	-0.1947
-3.8441 subtract	-0.1956
-3.1452 such	-0.4963
-99.9990 sudden	-0.1745
-3.6680 sufficiently	-0.1966
-99.9990 suggest	-0.1975
-99.9990 suggesting	-0.1745
-99.9990 suitable	-0.1975
-99.9990 sum	-0.1863
-99.9990 summary	-0.1927
-3.3001 suppose	-0.3959
-3.5431 supposed	-0.7073
-3.6680 sure	-0.2685
-99.9990 surrounded	-0.1948
-3.8441 surrounds	-0.3080
-3.2421 suspect	-0.4561
-99.9990 suspicious	-0.1910
-99.9990 switch	-0.1753
-3.8441 symbol	-0.1854
-99.9990 symbolism	-0.1753
-99.9990 symbols	-0.1960
-99.9990 symmetric	-0.1962
-99.9990 synonyms	-0.1753
-2.5431 t	-0.7707
-3.8441 t1	-0.1881
-3.5431 table	-0.2054
-99.9990 tables	-0.1753
-99.9990 tackling	-0.1963
-3.1038 take	-0.3648
-99.9990 taken	-0.1897
-3.8441 taking	-0.1659
-3.8441 talk	-0.3302
-3.4462 talked	-0.6877
-3.3670 talking	-0.4358
-99.9990 talks	-0.1968
-3.8441 tallies	-0.3306
-99.9990 tally	-0.1975
-3.3670 tan	-0.4358
-3.8441 tangency	-0.3088
-3.1452 tangent	-0.3298
-3.8441 tell	-0.1959
-99.9990 telling	-0.1971
-3.6680 tells	-0.1925
-99.9990 temporarily	-0.1910
-99.9990 tempted	-0.1853
-99.9990 tempting	-0.1853
-99.9990 tend	-0.1853
-99.9990 tendency	-0.1753
-3.6680 term	-0.1969
-2.6980 terms	-1.1369
-99.9990 test	-0.1958
-3.8441 text	-0.1752
-3.6680 textbook	-0.1877
-2.3063 than	-0.4065
-1.6280 that	-0.3432
-1.2872 the	-0.5650
-99.9990 their	-0.1974
-3.6680 them	-0.1526
-99.9990 themselves	-0.1973
-2.5431 then	-0.1944
-3.6680 theorem	-0.1711
-2.9990 there	-0.3458
-3.1909 therefore	-0.1708
-3.8441 theres	-0.1963
-2.6680 these	-0.6713
-3.3670 they	-0.2356
-99.9990 theyre	-0.1974
-2.8441 thing	-0.2832
-3.1452 things	-0.1698
-2.9410 think	-0.5997
-3.8441 thinking	-0.3198
-3.4462 third	-0.4094
-1.7285 this	-0.4109
-99.9990 this:	-0.1973
-3.6680 those	-0.2799
-3.6680 though	-0.1714
-3.8441 thought	-0.1871
-3.6680 thousand	-0.4702
-99.9990 thousands	-0.1863
-2.2056 three	-0.3217
-3.3001 through	-0.4459
-3.8441 tidbit	-0.3293
-3.8441 tighter	-0.1893
-2.5219 time	-0.3394
-3.1038 times	-0.2203
-1.5563 to	-0.4147
-3.3670 today	-0.1813
-99.9990 todays	-0.1974
-3.3670 tolerance	-0.5477
-3.5431 too	-0.1734
-3.8441 took	-0.1511
-99.9990 top	-0.1975
-3.6680 topic	-0.1841
-3.8441 total	-0.3305
-99.9990 tougher	-0.1853
-99.9990 trade	-0.1975
-3.8441 tragedy	-0.1922
-99.9990 trained	-0.1975
-99.9990 training	-0.1925
-99.9990 translate	-0.1958
-99.9990 transpired	-0.1753
-99.9990 transpires	-0.1753
-99.9990 traveled	-0.1974
-3.5431 tremendous	-0.1973
-99.9990 triangles	-0.1975
-99.9990 trigonometric	-0.1974
-3.8441 trigonometry	-0.1827
-3.4462 trouble	-0.1500
-3.5431 true	-0.2335
-3.5431 try	-0.7073
-3.3001 trying	-0.7717
-99.9990 turn	-0.1936
-3.4462 turns	-0.3355
-99.9990 twice	-0.1944
-2.3743 two	-0.2933
-99.9990 two-dimensional	-0.1974
-99.9990 type	-0.1753
-3.8441 types	-0.3198
-99.9990 unambiguous	-0.1753
-99.9990 undefined	-0.1753
-3.8441 under	-0.3080
-99.9990 underlined	-0.1897
-3.5431 understand	-0.2505
-99.9990 unequal	-0.1853
-99.9990 unfamiliar	-0.1925
-99.9990 unfortunately	-0.1745
-99.9990 unimpeded	-0.1925
-99.9990 uninitiated	-0.1753
-3.8441 unit	-0.3294
-99.9990 units	-0.1974
-99.9990 universe	-0.1863
-3.5431 unless	-0.1591
-3.6680 until	-0.2774
-2.6980 up	-0.5298
-99.9990 upper	-0.1974
-2.8229 us	-0.1943
-3.0660 use	-0.1362
-3.6680 used	-0.1732
-99.9990 uses	-0.1925
-3.8441 using	-0.1738
-99.9990 usual	-0.1974
-3.6680 usually	-0.1957
-99.9990 utilize	-0.1963
-99.9990 v	-0.1753
-99.9990 vacuum	-0.1910
-2.7650 value	-0.5752
-3.5431 values	-0.1659
-99.9990 vanilla	-0.1753
-99.9990 variables	-0.1910
-99.9990 vernacular	-0.1927
-3.8441 versus	-0.1744
-99.9990 vertical	-0.1967
-2.6400 very	-0.3333
-99.9990 view	-0.1863
-99.9990 viewed	-0.1943
-99.9990 violated	-0.1927
-3.8441 visual	-0.3309
-3.1909 visualize	-0.2224
-99.9990 visualized	-0.1974
-99.9990 visualizing	-0.1975
-99.9990 vividly	-0.1745
-3.5431 volume	-0.2327
-99.9990 waitress	-0.1970
-2.7302 want	-0.8316
-3.3670 wanted	-0.4489
-99.9990 wants	-0.1967
-2.5541 was	-0.1521
-99.9990 waste	-0.1968
-99.9990 watch	-0.1927
-2.3670 way	-0.2618
-3.6680 ways	-0.2677
-1.6903 we	-0.5454
-99.9990 wed	-0.1966
-2.8899 well	-0.2401
-99.9990 well-known	-0.1973
-99.9990 went	-0.1974
-2.8899 were	-0.2898
-3.5431 weve	-0.1971
-1.9520 what	-0.6222
-99.9990 whatsoever	-0.1961
-2.4920 when	-0.6017
-3.8441 whenever	-0.1898
-3.0312 where	-0.3387
-3.3670 whereas	-0.1905
-99.9990 whereby	-0.1974
-3.1452 whether	-0.2975
-2.4920 which	-0.4156
-3.8441 while	-0.1667
-99.9990 white	-0.1958
-3.2421 who	-0.1936
-3.6680 whole	-0.2789
-3.3001 whose	-0.2306
-2.8899 why	-0.3196
-99.9990 widest	-0.1953
-3.6680 widths	-0.1911
-3.8441 wife	-0.1969
-2.4550 will	-0.3999
-3.3670 wind	-0.4357
-3.8441 wish	-0.3088
-2.5117 with	-0.3555
-2.9410 within	-0.5789
-3.3001 without	-0.2083
-99.9990 wonder	-0.1947
-99.9990 wonderful	-0.1974
-3.6680 wont	-0.2813
-2.4550 words	-0.2480
-3.4462 work	-0.1883
-99.9990 worked	-0.1975
-3.8441 works	-0.3088
-99.9990 world	-0.1753
-99.9990 worry	-0.1968
-3.6680 worse	-0.1869
-3.5431 worth	-0.3775
-2.6680 would	-0.4674
-99.9990 wouldnt	-0.1967
-3.8441 wound	-0.3301
-3.3670 write	-0.2601
-99.9990 writing	-0.1925
-99.9990 written	-0.1943
-3.6680 wrong	-0.1952
-1.8972 x	-0.8345
-99.9990 x-	-0.1910
-3.1909 x-axis	-0.2535
-3.8441 x-coordinate	-0.1953
-3.0312 x1	-0.2745
-99.9990 x1s	-0.1910
-3.8441 x2	-0.1946
-99.9990 xaxis	-0.1962
-2.5219 y	-0.5416
-3.4462 y-axis	-0.2190
-3.6680 y1	-0.2578
-99.9990 y1s	-0.1975
-3.8441 y2	-0.1881
-99.9990 yaxis	-0.1753
-99.9990 ycoordinate	-0.1963
-99.9990 years	-0.1957
-99.9990 yes	-0.1963
-2.0414 you	-0.2645
-99.9990 youll	-0.1962
-99.9990 your	-0.1955
-3.1452 youre	-0.2180
-99.9990 yourself	-0.1974
-3.4462 youve	-0.2452
-99.9990 zero	-0.1936

\2-grams:
-0.4372 "what </s> -0.0884
-0.4372 (which is -0.0883
-2.2365 0 32 0.3450
-0.3522 0 </s> 1.0536
-1.5011 0 and -0.0583
-1.7713 0 as -0.1408
-2.2365 0 if -0.0792
-2.2365 0 in -0.0800
-1.2892 0 is -0.2227
-2.2365 0 it 0.0151
-2.2365 0 mess 0.1089
-2.2365 0 notice 0.1931
-2.2365 0 obviously -0.0010
-0.7993 0 over -0.9938
-1.7713 0 such 0.1525
-2.2365 0 that -0.0586
-2.2365 0 the -0.0832
-2.2365 0 then -0.0769
-2.2365 0 was -0.0766
-2.2365 0 we -0.0521
-2.2365 0 what -0.0857
-2.2365 0 you -0.0142
-0.4372 0) over -0.0858
-0.6021 1 </s> 1.2157
-2.1854 1 I -0.0229
-1.7201 1 and -0.0823
-2.1854 1 as -0.0841
-0.5721 1 comma -0.9640
-1.7201 1 equals -0.0582
-1.2381 1 is -0.0266
-1.1488 1 minus -0.4086
-1.7201 1 or -0.0587
-1.2381 1 plus -0.1411
-2.1854 1 squared 0.0205
-2.1854 1 tan 0.3479
-2.1854 1 that -0.0882
-1.4499 1 the -0.0761
-0.4372 1% of -0.0215
-0.8750 1+h and -0.0800
-1.3403 1+h is -0.0868
-1.3403 1+h minus -0.0869
-1.3403 1+h no -0.0379
-1.3403 1+h squared -0.0053
-1.3403 1+h the -0.0783
-1.3403 1+h where -0.0763
-0.4372 1/h-- and -0.0845
-0.9143 10 and -0.0696
-0.9143 10 in -0.0877
-0.9143 10 is -0.0850
-0.4372 1000 words -0.0791
-0.8170 12 </s> 1.3122
-1.2823 12 and -0.0879
-1.2823 12 isnt -0.0471
-1.2823 12 must 0.0255
-1.2823 12 pi -0.0037
-1.2823 12 times -0.0444
-0.7382 15 </s> 1.4529
-0.7382 15 if -0.0869
-0.9262 16 </s> 1.3122
-0.4441 16 feet -0.2169
-1.3914 16 than -0.0864
-0.9262 16 times -0.0588
-0.6660 16h </s> 0.9594
-1.6133 16h apparently 0.1089
-1.6133 16h became -0.0323
-1.6133 16h becomes -0.0740
-1.6133 16h do -0.0477
-1.1480 16h gets 0.0276
-1.6133 16h over 0.0575
-1.6133 16h squared -0.0861
-1.1480 16h was -0.2173
-1.6133 16h when 0.0082
-0.1788 16t squared -0.0908
-0.7382 18 pi -0.0037
-0.7382 18 times -0.0444
-0.4372 19 </s> -0.0884
-2.1930 2 2 -0.0859
-0.8016 2 </s> 0.5873
-1.1756 2 and -0.0043
-2.1930 2 be -0.0808
-2.1930 2 but -0.0840
-0.7145 2 comma -0.3802
-1.7278 2 does -0.0357
-2.1930 2 had -0.0798
-2.1930 2 happen -0.0471
-2.1930 2 if 0.0300
-2.1930 2 in -0.0800
-0.8016 2 is -0.0525
-2.1930 2 is-- 0.1089
-1.7278 2 minus -0.2108
-2.1930 2 notice 0.1931
-2.1930 2 over -0.0803
-2.1930 2 so -0.0835
-2.1930 2 squared -0.0616
-2.1930 2 the -0.0864
-2.1930 2 this -0.0854
-2.1930 2 times -0.0740
-1.7278 2 which 0.1308
-2.1930 2 would 0.0662
-0.4372 2000 years 0.1089
-0.9143 23 </s> 1.4529
-0.9143 23 is -0.0868
-0.9143 23 on 0.2849
-0.3121 25 </s> 0.8592
-1.5163 25 is -0.0638
-1.5163 25 looks -0.0323
-1.0511 25 so -0.0783
-1.5163 25 then -0.0520
-0.2730 2ab plus -0.1443
-1.0859 2x as -0.1560
-1.5511 2x crosses 0.1089
-1.5511 2x equals -0.0814
-1.5511 2x is -0.0883
-0.6038 2x minus -0.4682
-1.5511 2x plus -0.0728
-1.5511 2x to -0.0339
-1.0859 2x will 0.1153
-0.9212 3 </s> 0.9594
-1.8685 3 I -0.0551
-1.1331 3 and -0.0681
-0.9212 3 comma -0.1034
-1.8685 3 did 0.0490
-1.8685 3 goes 0.1022
-0.8320 3 is -0.0816
-1.8685 3 seemed -0.0010
-1.8685 3 squared 0.0205
-1.8685 3 this -0.0245
-1.8685 3 times -0.0740
-1.8685 3 versus -0.0010
-1.8685 3 when -0.0782
-1.8685 3 which 0.0460
-1.8685 3 would -0.0729
-0.9805 32 </s> 1.1031
-1.7159 32 and -0.0865
-1.7159 32 as -0.0001
-1.7159 32 feet -0.0021
-0.1996 32 plus -1.0114
-1.7159 32 times -0.0740
-0.4372 32h plus -0.0209
-0.7382 32t </s> 1.4529
-0.7382 32t one -0.0477
-0.2730 33 </s> -0.2287
-0.4372 3a squared -0.0812
-0.4372 3ab squared 0.0205
-0.1360 3x minus -0.6318
-1.3403 3x plus -0.0690
-0.6048 4 </s> 1.1031
-1.3403 4 belong 0.3640
-1.3403 4 multiplied 0.2424
-1.3403 4 squared -0.0616
-1.3403 4 this -0.0854
-1.3403 4 which 0.0460
-0.2730 48 feet -0.1428
-0.4372 4a cubed -0.0654
-0.4372 4ab cubed -0.0169
-0.6311 5 </s> 1.0146
-1.6676 5 and -0.0520
-1.6676 5 belongs 0.6308
-0.9322 5 divided 0.5615
-1.6676 5 inches 0.1089
-0.7203 5 is -0.1343
-1.6676 5 no -0.0621
-1.6676 5 so -0.0835
-0.4372 5/3 </s> 1.4529
-0.5740 6 divided 0.7707
-1.0392 6 minus -0.0381
-1.0392 6 units 0.1089
-0.4372 64 feet -0.0444
-0.4372 6a squared -0.0812
-0.2457 8 comma -0.3112
-1.2823 8 minus -0.0381
-1.2823 8 what -0.0857
-0.4372 9 times -0.0740
-0.2730 90 degrees 0.1089
-0.4372 99% of -0.0215
-0.0127 </s> <s> 0.0956
-3.2798 </s> <s>" 0.1089
-3.2798 </s> <s>01 0.1089
-2.0755 </s> <s>1 0.1072
-3.2798 </s> <s>301 0.1089
-3.2798 </s> <s>36 0.1089
-2.5443 </s> <s>452 0.1046
-2.8146 </s> <s>477 0.1017
-2.8146 </s> <s>6 0.1017
-3.2798 </s> <s>602 0.1089
-3.2798 </s> <s>Hi 0.1089
-3.2684 <s> 0 0.1666
-2.8032 <s> 1 -0.0939
-3.2684 <s> 16 -0.0339
-3.2684 <s> 16h -0.0566
-3.2684 <s> 2 0.0045
-3.2684 <s> 23 -0.0323
-2.8032 <s> 3 -0.0125
-3.2684 <s> 5 0.0031
-3.2684 <s> 8 0.2758
-2.3211 <s> A 0.1089
-2.8032 <s> After 0.1017
-1.9281 <s> Again 0.1058
-2.2510 <s> All 0.1089
-3.2684 <s> Among 0.1089
-0.8535 <s> And 0.1152
-2.8032 <s> Another 0.1017
-3.2684 <s> Answer: 0.1089
-3.2684 <s> Arent 0.1089
-2.3211 <s> As 0.1089
-2.0642 <s> At 0.1340
-2.2510 <s> Because 0.0177
-1.5090 <s> But 0.1159
-1.6551 <s> By 0.1369
-3.2684 <s> Carry 0.1089
-3.2684 <s> Coming 0.1089
-2.5329 <s> Consequently 0.1089
-2.5329 <s> Consider 0.1046
-3.2684 <s> Couldnt 0.1089
-2.8032 <s> Delta 0.1017
-3.2684 <s> Drawing 0.1089
-3.2684 <s> Either 0.1089
-3.2684 <s> Every 0.1089
-3.2684 <s> Everything 0.1089
-3.2684 <s> Fact 0.1089
-3.2684 <s> First 0.1089
-1.7898 <s> For 0.1044
-3.2684 <s> From 0.1089
-2.8032 <s> Given 0.1089
-3.2684 <s> Here 0.1089
-3.2684 <s> Hopefully 0.1089
-2.2318 <s> How 0.0674
-2.8032 <s> However 0.1017
-1.4333 <s> I 0.0761
-1.6851 <s> If 0.0831
-3.2684 <s> Ill -0.0614
-2.8032 <s> Im -0.0588
-1.0988 <s> In 0.1168
-2.8032 <s> Instead 0.1089
-3.2684 <s> Is 0.1089
-2.2510 <s> It 0.1089
-2.8032 <s> Its 0.1017
-3.2684 <s> Just 0.1089
-3.2684 <s> Knowing 0.1089
-2.2318 <s> Let 0.1246
-1.7520 <s> Lets 0.1070
-3.2684 <s> Look 0.1089
-2.8032 <s> Many 0.1089
-2.8032 <s> My 0.1089
-1.6008 <s> Namely 0.0900
-1.8312 <s> Notice 0.0641
-1.2998 <s> Now 0.0964
-2.8032 <s> Observe 0.1017
-3.2684 <s> Obviously 0.1089
-2.5329 <s> Of 0.0332
-2.3211 <s> Oh 0.1058
-1.7520 <s> On 0.0000
-3.2684 <s> Once 0.1089
-2.5329 <s> One 0.1089
-2.8032 <s> Or 0.1089
-2.2318 <s> Our 0.1065
-3.2684 <s> Outside 0.1089
-3.2684 <s> Point 0.1089
-3.2684 <s> Profits 0.1089
-3.2684 <s> Question: 0.1089
-3.2684 <s> Remembering 0.1089
-3.2684 <s> Replace 0.1089
-2.3211 <s> See 0.1058
-3.2684 <s> Since 0.1089
-1.7520 <s> So 0.0841
-3.2684 <s> Some 0.1089
-3.2684 <s> Sort 0.1089
-3.2684 <s> Square 0.1089
-3.2684 <s> Subtract 0.1089
-2.8032 <s> Suppose 0.1089
-3.2684 <s> Tangent 0.1089
-1.7520 <s> That 0.1070
-1.3127 <s> The 0.1009
-2.3211 <s> Then 0.1017
-2.5329 <s> There 0.1089
-2.5329 <s> Therefore 0.1089
-3.2684 <s> Theres 0.1089
-2.8032 <s> These 0.1017
-3.2684 <s> Thinking 0.1089
-1.9281 <s> This 0.1280
-3.2684 <s> Though 0.1089
-2.8032 <s> Three 0.1089
-2.2318 <s> To 0.1089
-3.2684 <s> Two 0.1089
-3.2684 <s> Undefined 0.1089
-3.2684 <s> Unfortunately 0.1089
-1.4163 <s> We 0.1112
-1.4888 <s> Well 0.1028
-2.8032 <s> Were 0.1089
-1.6008 <s> What 0.1089
-2.2510 <s> When 0.1046
-3.2684 <s> Where 0.1089
-2.3211 <s> Why 0.1089
-3.2684 <s> Yes 0.2424
-1.3841 <s> You 0.1089
-3.2684 <s> f 1.3737
-2.8032 <s> it -0.1256
-2.8032 <s> m1 0.0892
-3.2684 <s> m2 -0.0654
-2.5329 <s> that -0.4084
-3.2684 <s> x -0.0366
-2.3211 <s> y -0.1164
-0.4372 <s>" at -0.0057
-0.4372 <s>01 </s> 1.4529
-1.2823 <s>1 </s> 1.4529
-1.2823 <s>1 and -0.0865
-1.2823 <s>1 comma -0.0850
-1.2823 <s>1 or -0.0739
-1.2823 <s>1 the -0.0864
-0.8170 <s>1 we -0.0703
-0.4372 <s>301 </s> 1.4529
-0.4372 <s>36 feet -0.0444
-0.4491 <s>452 </s> 1.3122
-0.9143 <s>452 roughly 0.1089
-0.2730 <s>477 </s> 1.3122
-0.2730 <s>6 is -0.0494
-0.4372 <s>602 </s> 1.4529
-0.4372 <s>Hi </s> 1.4529
-1.0392 A ball 0.0354
-1.0392 A less -0.0841
-1.0392 A second -0.0684
-1.0392 A set 0.1499
-0.2730 After all -0.0807
-1.3403 Again a -0.0868
-0.8750 Again in -0.1539
-1.3403 Again not -0.0692
-1.3403 Again notice 0.1931
-0.8750 Again the -0.0763
-1.3403 Again this -0.0854
-0.7382 Algebra I -0.0874
-0.7382 Algebra of -0.0874
-1.2153 All Im 0.0627
-1.2153 All of -0.0544
-1.2153 All points -0.0798
-1.2153 All right -0.0654
-1.2153 All this -0.0854
-1.2153 All you -0.0749
-0.4372 Among other -0.0865
-2.4194 And I -0.0769
-2.4194 And Im 0.0627
-1.4721 And again 0.0448
-2.4194 And all -0.0665
-0.8683 And by -0.9480
-2.4194 And computationally 0.1089
-2.4194 And for -0.0623
-2.4194 And from -0.0835
-1.4721 And here -0.0679
-1.3829 And if 0.4033
-1.3829 And in -0.0913
-2.4194 And just -0.0705
-2.4194 And let -0.0339
-1.9542 And lets -0.0758
-2.4194 And many -0.0684
-1.3829 And notice 0.3186
-1.6840 And now -0.0555
-2.4194 And observe 0.1916
-1.9542 And of -0.2170
-2.4194 And our -0.0864
-2.4194 And she 0.1089
-1.4020 And so -0.0316
-1.9542 And that -0.1993
-0.8683 And the -0.1434
-2.4194 And then -0.0769
-2.4194 And there -0.0772
-2.4194 And therefore -0.0707
-1.3829 And this -0.0796
-2.4194 And to -0.0883
-1.9542 And we -0.0876
-1.3829 And what -0.1715
-2.4194 And when 0.0331
-2.4194 And why -0.0798
-1.9542 And you 0.0022
-0.2730 Another way -0.0355
-0.4372 Answer: Yes 0.2424
-0.4372 Arent we -0.0881
-1.0392 As badly 0.1089
-1.0392 As soon 0.3830
-1.0392 As the -0.0884
-1.0392 As x -0.0807
-0.2457 At any -0.3215
-0.8170 At t 0.1686
-0.1979 Because you -0.3445
-1.2942 But again -0.0502
-1.7594 But heres -0.0654
-1.2942 But in 0.1065
-1.7594 But its -0.0817
-1.7594 But lets -0.0823
-0.8121 But notice 0.2359
-1.7594 But somehow 0.3479
-1.7594 But that -0.0873
-0.7228 But the -0.1020
-1.7594 But this -0.0854
-1.2942 But what 0.0698
-1.6413 By picking 0.1089
-0.0280 By the -1.1558
-0.6048 Calculus </s> 1.1031
-1.3403 Calculus and -0.0764
-1.3403 Calculus has -0.0792
-1.3403 Calculus in -0.0800
-1.3403 Calculus is -0.0618
-1.3403 Calculus namely -0.0471
-0.4372 Carry out -0.0515
-0.4372 Coming back 0.4756
-0.9143 Consequently and -0.0865
-0.9143 Consequently our -0.0864
-0.9143 Consequently since -0.0444
-0.9143 Consider all -0.0520
-0.4491 Consider for -0.1611
-0.4372 Couldnt I -0.0848
-0.2730 Delta x -0.0356
-0.4372 Derivatives and -0.0879
-0.4372 Descartes geometry -0.0772
-0.4372 Does the -0.0875
-0.4372 Drawing a -0.0880
-0.4372 Either one -0.0840
-0.4372 Every time -0.0455
-0.4372 Everything that -0.0882
-0.4372 Fact heres -0.0654
-0.4372 First of -0.0840
-0.2743 For example -0.0565
-1.4786 For positive -0.0311
-1.4786 For someone 0.1089
-1.0133 For this -0.0863
-0.4372 From the -0.0709
-0.9143 Geometry </s> 1.4529
-0.9143 Geometry approach -0.0557
-0.9143 Geometry in 0.0096
-0.7382 Given a -0.0730
-0.7382 Given epsilon -0.0817
-0.4372 Here again -0.0756
-0.4372 Hopefully one -0.0871
-0.6709 How about -0.0758
-0.4007 How do -0.1472
-0.2730 However as 0.0054
-2.5200 I add -0.0471
-2.5200 I agree -0.0010
-2.0547 I am 0.1089
-2.5200 I at -0.0852
-2.5200 I call 0.0169
-2.5200 I came -0.0471
-0.8523 I can -0.0638
-2.5200 I clear -0.0471
-2.5200 I could -0.0772
-2.0547 I define 0.3097
-1.1285 I do -0.1953
-2.0547 I dont -0.1921
-2.0547 I draw 0.1249
-2.5200 I drew 0.1089
-1.7845 I find -0.0480
-2.5200 I find-- 0.1089
-2.5200 I forget 0.1089
-1.5727 I get -0.0212
-2.5200 I go -0.0269
-2.5200 I guess -0.0010
-1.7845 I had -0.0614
-1.5727 I have -0.0780
-2.5200 I hope -0.0010
-2.5200 I intuitively -0.0654
-2.5200 I know 0.0449
-1.5727 I look -0.1076
-2.5200 I mean -0.0222
-2.5200 I might -0.0323
-2.5200 I much -0.0725
-2.5200 I must -0.0772
-2.5200 I need -0.0763
-2.5200 I never -0.0471
-2.5200 I no -0.0798
-1.7845 I now -0.0744
-2.5200 I recognize 0.1089
-2.5200 I remember -0.0323
-2.5200 I rewrite -0.0010
-2.5200 I said -0.0786
-1.5727 I say -0.0777
-2.0547 I see -0.1651
-1.7845 I should 0.0132
-2.5200 I showed 0.1089
-2.5200 I simply -0.0654
-2.5200 I solved 0.1089
-2.5200 I subtract -0.0010
-1.5727 I suspect 0.1107
-2.5200 I then -0.0847
-1.5025 I think 0.4166
-2.5200 I thought -0.0010
-1.4834 I want 0.1099
-2.5200 I wanted -0.0614
-2.5200 I was -0.0846
-2.0547 I will -0.0821
-2.5200 I wonder 0.1089
-1.5727 I would 0.0481
-2.5200 I wound 0.2424
-0.2730 Id like -0.1725
-1.5833 If I -0.0815
-1.5833 If epsilon -0.0030
-0.8478 If the -0.0677
-0.6360 If we -0.1341
-1.1181 If x -0.1773
-0.8478 If you -0.0849
-1.2153 Ill call -0.0780
-1.2153 Ill cancel 0.1089
-1.2153 Ill distort -0.0010
-1.2153 Ill do -0.0815
-1.2153 Ill pull -0.0010
-1.2153 Ill write -0.0037
-1.4786 Im all -0.0847
-1.0133 Im going 0.6738
-1.4786 Im now -0.0840
-1.4786 Im reminded 0.1089
-0.5313 Im saying 0.1918
-1.4786 Im still -0.0614
-1.4786 Im trying 0.6953
-2.1775 In a -0.0853
-2.1775 In effect 0.1089
-2.1775 In excess 0.1089
-0.6990 In fact 0.1119
-0.1383 In other -1.2041
-2.1775 In the -0.0864
-0.7382 Instead I -0.0874
-0.7382 Instead of -0.0874
-0.4372 Is that -0.0882
-1.2153 It depends 0.1089
-1.2153 It falls -0.0614
-1.2153 It has -0.0605
-1.2153 It makes -0.0339
-1.2153 It should -0.0166
-1.2153 It will 0.1102
-0.2730 Its like -0.0544
-0.9143 Ive drawn -0.0471
-0.9143 Ive said -0.0786
-0.9143 Ive spent -0.0010
-0.4372 Just a -0.0818
-0.4372 Knowing that -0.0656
-1.1361 Let S -0.0684
-0.1888 Let me -0.0936
-1.5163 Lets continue 0.0155
-1.5163 Lets draw -0.0786
-1.5163 Lets go -0.0269
-1.5163 Lets illustrate 0.1089
-1.5163 Lets just -0.0825
-1.0511 Lets look 0.1808
-1.5163 Lets not -0.0824
-1.5163 Lets now -0.0840
-1.0511 Lets return 0.1017
-1.5163 Lets say -0.0267
-0.4372 Limits </s> 1.4529
-0.4372 Look at -0.0852
-0.7382 Many a -0.0880
-0.7382 Many times -0.0740
-0.7382 My run -0.0323
-0.7382 My slope 0.0025
-1.6676 Namely 2 0.0045
-0.9322 Namely I -0.0076
-1.6676 Namely go 0.0169
-1.2024 Namely in -0.1539
-1.6676 Namely it -0.0828
-1.6676 Namely lets -0.0823
-1.6676 Namely notice 0.1931
-0.9322 Namely the -0.0776
-1.6676 Namely we -0.0828
-1.6676 Namely while -0.0010
-1.2024 Namely you -0.0805
-1.4372 Notice also -0.0605
-1.4372 Notice if -0.0170
-0.4197 Notice that -0.0392
-0.9720 Notice then -0.0477
-1.5034 Now I -0.0648
-0.7644 Now again 0.0096
-1.9686 Now at -0.0785
-1.9686 Now because -0.0752
-1.9686 Now before -0.0752
-1.9686 Now by 0.0773
-1.9686 Now doesnt -0.0323
-1.5034 Now heres -0.0843
-1.5034 Now if 0.1269
-1.9686 Now in -0.0877
-1.9686 Now it 0.0151
-1.9686 Now keep -0.0010
-1.2332 Now of -0.4261
-1.5034 Now the -0.0873
-1.9686 Now this -0.0881
-1.9686 Now to -0.0773
-1.9686 Now we -0.0881
-1.5034 Now what 0.0068
-1.2332 Now you -0.4247
-0.6709 OK lets -0.0211
-1.1361 OK suppose 0.1809
-1.1361 OK the -0.0808
-1.1361 OK we -0.0856
-0.2730 Observe that -0.0499
-0.4372 Obviously it -0.0777
-0.1788 Of course -0.1390
-1.0392 Oh as -0.0633
-1.0392 Oh here -0.0837
-0.5740 Oh to -0.1745
-0.0378 On the -0.8151
-0.4372 Once weve -0.0471
-0.9143 One automatically 0.1089
-0.9143 One case -0.0802
-0.9143 One could -0.0772
-0.7382 Or infinitely 0.1089
-0.7382 Or no -0.0798
-1.1361 Our intuition -0.0471
-0.6709 Our lecture -0.0215
-1.1361 Our main 0.0460
-1.1361 Our recipe -0.0323
-0.4372 Outside that -0.0882
-0.4372 Point is -0.0618
-0.4372 Polyanna who -0.0684
-0.4372 Profits rose 0.2424
-0.4372 Pythagorean theorem -0.0323
-0.4372 Question: Does 0.1089
-0.4372 Remembering my -0.0542
-0.4372 Replace x -0.0660
-0.3037 S </s> 1.0146
-1.3403 S be -0.0735
-1.3403 S whether -0.0397
-1.3403 S which -0.0282
-1.0392 See another -0.0614
-0.5740 See the -0.0627
-1.0392 See this -0.0245
-0.4372 Since this -0.0854
-1.5163 So I -0.0769
-1.5163 So certainly -0.0557
-1.5163 So for -0.0204
-0.7809 So if -0.0523
-1.5163 So in -0.0784
-1.5163 So nine -0.0397
-1.5163 So until 0.1022
-0.7809 So what -0.0818
-0.4372 Some fairly -0.0010
-0.4372 Sort of -0.0882
-0.4372 Square each 0.1022
-0.4372 Subtract twice 0.1089
-0.7382 Suppose I -0.0769
-0.7382 Suppose youre -0.0725
-0.4372 Tangent of -0.0847
-1.5163 That also -0.0792
-1.5163 That for -0.0858
-1.0511 That if -0.2008
-1.0511 That the -0.0868
-1.5163 That these 0.3471
-1.5163 That using -0.0010
-1.5163 That was -0.0510
-1.5163 That what -0.0263
-1.5163 That when -0.0485
-1.5163 That would 0.0662
-1.9557 The absolute 0.6103
-1.9557 The answer -0.0019
-1.9557 The arithmetic -0.0010
-1.9557 The beauty 0.1089
-1.9557 The chances 0.1089
-1.9557 The danger -0.0323
-1.9557 The difference -0.0654
-1.9557 The distance -0.0786
-1.9557 The first -0.0707
-1.9557 The graph -0.0707
-1.2202 The idea 0.1475
-1.9557 The important -0.0725
-1.4905 The limit 0.1475
-1.9557 The major 0.1089
-1.9557 The mathematical -0.0010
-1.9557 The next -0.0772
-1.2202 The only 0.0883
-1.4905 The point -0.0290
-1.0084 The question -0.0573
-1.9557 The reading -0.0010
-1.9557 The reason -0.0265
-1.9557 The square -0.0697
-1.9557 The tangent 0.1192
-1.9557 The two -0.0860
-0.5740 Then I -0.0755
-0.5740 Then we -0.0710
-0.9143 There is -0.0638
-0.9143 There other -0.0865
-0.9143 There was -0.0846
-0.9143 Therefore I -0.0769
-0.9143 Therefore the -0.0796
-0.9143 Therefore what 0.0138
-0.4372 Theres difficulty -0.0471
-0.2730 These are -0.0758
-0.4372 Thinking of -0.0215
-0.3037 This is -0.0252
-1.3403 This on 0.2849
-1.3403 This will 0.1102
-1.3403 This would 0.0662
-0.4372 Though we -0.0870
-0.7382 Three plus -0.0209
-0.7382 Three squared -0.0861
-1.1361 To be -0.0845
-1.1361 To get -0.0752
-1.1361 To let -0.0339
-1.1361 To say -0.0267
-1.1361 To see 0.0015
-0.4372 Two very -0.0837
-0.4372 Undefined indeterminate 0.1089
-0.4372 Unfortunately or -0.0837
-1.8521 We call -0.0269
-1.8521 We came -0.0471
-1.3869 We can -0.0613
-1.3869 We compute 0.0182
-1.3869 We could 0.0405
-1.8521 We feed 0.1089
-1.8521 We find 0.0564
-0.8156 We know -0.1047
-1.8521 We learned -0.0010
-1.8521 We need -0.0763
-1.8521 We observe 0.1916
-1.8521 We pick -0.0444
-1.8521 We said -0.0786
-1.3869 We say -0.0671
-1.8521 We talked 0.5998
-1.8521 We wanted -0.0614
-1.8521 We will -0.0854
-1.8521 We wound 0.2424
-1.7796 Well 1 -0.0858
-1.7796 Well Ive -0.0323
-1.0441 Well again 0.0028
-1.7796 Well between -0.0019
-1.7796 Well did -0.0222
-1.7796 Well enough -0.0684
-1.7796 Well lets -0.0697
-1.7796 Well look 0.3215
-1.7796 Well make -0.0786
-1.7796 Well notice 0.1931
-1.7796 Well obviously -0.0010
-1.7796 Well people -0.0010
-1.7796 Well the -0.0832
-1.7796 Well theres -0.0010
-1.7796 Well this -0.0833
-1.3144 Well we -0.0662
-1.7796 Well what -0.0067
-1.7796 Well with -0.0850
-1.7796 Well you -0.0818
-0.7382 Were assuming -0.0010
-0.7382 Were supposed 0.6308
-1.6676 What I -0.0815
-1.6676 What advantage 0.1089
-1.6676 What do -0.0613
-1.6676 What if -0.0170
-1.6676 What profits 0.0155
-1.6676 What really -0.0471
-1.6676 What the -0.0884
-0.2762 What we -0.1148
-1.6676 What would -0.0391
-0.7501 When I -0.0626
-1.2153 When the -0.0783
-1.2153 When we -0.0870
-0.7501 When you 0.0102
-0.4372 Where would -0.0833
-1.0392 Why couldnt -0.0010
-1.0392 Why dont -0.0515
-1.0392 Why is -0.0618
-1.0392 Why isnt -0.0471
-0.2730 Yes </s> 1.3122
-1.8843 You say -0.0686
-0.0492 You see 0.2323
-1.8843 You specify 0.1089
-1.8843 You square -0.0823
-1.4048 a </s> 0.5416
-2.8420 a I -0.0769
-2.3768 a and -0.0842
-2.8420 a at -0.0785
-2.8420 a background 0.1089
-2.8420 a be -0.0872
-2.3768 a better -0.0010
-2.3768 a bit -0.0557
-1.8054 a by -0.3008
-2.8420 a case -0.0802
-2.8420 a certain -0.0323
-2.3768 a circle 0.1053
-2.8420 a comma -0.0850
-2.8420 a completely 0.1089
-2.8420 a cord 0.1089
-2.3768 a cube 0.1038
-2.8420 a cubed -0.0169
-1.8947 a curve -0.0461
-2.8420 a cylinder 0.1089
-2.3768 a delta -0.0689
-2.8420 a derivative -0.0010
-2.8420 a device -0.0010
-2.8420 a difference -0.0654
-2.3768 a different -0.0588
-2.8420 a difficult -0.0471
-2.8420 a dimension -0.0323
-2.3768 a distance -0.0684
-2.8420 a equals -0.0862
-2.8420 a every -0.0323
-2.3768 a f 1.2331
-2.8420 a fancy 0.1022
-2.8420 a fourth -0.0654
-2.3768 a fraction 0.1089
-2.8420 a fundamental -0.0010
-2.8420 a geometric 0.0095
-1.8054 a given 0.0033
-2.8420 a glance -0.0010
-1.8947 a good 0.0615
-2.1066 a graph -0.0323
-2.3768 a great -0.1575
-2.8420 a guy 0.1089
-2.3768 a half 0.1089
-2.8420 a hard 0.1089
-2.8420 a heck 0.1089
-2.8420 a highly 0.1089
-2.8420 a how -0.0847
-2.8420 a in -0.0800
-1.8947 a is -0.0248
-2.8420 a it -0.0777
-2.8420 a legal 0.1089
-2.8420 a length -0.0614
-2.3768 a limit 0.1262
-1.4506 a line 0.0763
-1.3634 a little -0.2879
-2.8420 a log -0.0740
-2.8420 a logical 0.1089
-2.8420 a look 0.3215
-2.8420 a loss 0.1089
-2.8420 a lot -0.0010
-2.8420 a mistake 0.1089
-2.1066 a more -0.0598
-2.3768 a negative -0.0471
-2.3768 a nice 0.1038
-2.8420 a no -0.0621
-1.8947 a number -0.0588
-2.8420 a numbered 0.1089
-2.3768 a pair -0.1023
-2.8420 a parabola 0.1089
-2.8420 a particular -0.0786
-2.8420 a person 0.1089
-1.2287 a picture 0.1763
-2.8420 a place -0.0010
-1.2909 a plus -1.0289
-1.4506 a point -0.1855
-2.3768 a positive -0.1312
-2.8420 a power -0.0740
-2.8420 a pretty -0.0010
-2.8420 a problem -0.0807
-2.3768 a product 0.1038
-1.8054 a question -0.2372
-2.8420 a quickie 0.1089
-2.3768 a rather -0.0323
-2.8420 a revisited 0.1089
-2.1066 a rigorous -0.1019
-2.8420 a rising -0.0471
-2.8420 a rough 0.1089
-2.8420 a second -0.0684
-2.3768 a simple -0.1251
-2.8420 a simply -0.0169
-2.3768 a single 0.0690
-2.8420 a slope 0.0025
-2.3768 a small -0.1803
-2.8420 a smaller -0.0265
-2.8420 a so -0.0835
-2.8420 a specific 0.1089
-2.8420 a speed -0.0832
-2.8420 a square -0.0823
-2.1066 a squared -0.0648
-1.4506 a straight -0.3522
-2.8420 a student 0.1089
-2.8420 a sudden 0.1089
-2.8420 a test 0.1089
-2.8420 a that -0.0882
-2.3768 a third -0.1251
-2.8420 a this -0.0833
-2.1066 a thousand 0.0332
-2.8420 a three -0.0787
-2.3768 a time -0.1112
-2.3768 a tragedy 0.1089
-2.8420 a trained 0.1089
-1.8947 a tremendous 0.1089
-2.8420 a trigonometric 0.1089
-2.8420 a two-dimensional 0.1089
-2.8420 a vacuum 0.1089
-1.8947 a very -0.0684
-2.8420 a volume -0.0471
-2.1066 a way -0.1446
-2.8420 a wonderful 0.1089
-0.4372 ab and -0.0845
-0.4372 abbreviated in 0.0096
-0.4372 ability with -0.0547
-0.1788 able to -0.1669
-1.8351 about 1 0.0467
-1.8351 about 8 0.2758
-1.8351 about </s> 1.4529
-1.8351 about a -0.0730
-1.8351 about algebra -0.0471
-1.8351 about and -0.0879
-1.8351 about asking -0.0010
-1.8351 about bringing 0.1089
-1.8351 about curves 0.0155
-1.8351 about functions -0.0471
-1.8351 about in -0.0583
-1.8351 about is -0.0877
-1.8351 about less 0.9783
-1.8351 about pairs -0.0614
-1.8351 about ratio -0.0557
-1.8351 about such -0.0725
-1.3699 about that -0.2243
-1.0997 about the -0.0639
-1.8351 about this -0.0854
-1.8351 about trigonometry -0.0010
-1.8351 about what 0.0138
-1.8351 about why -0.0798
-0.2730 above this -0.2072
-0.0969 absolute value -0.7386
-0.8778 absolute values 0.0505
-0.4372 absolutevalue of -0.0504
-0.7382 abstract as -0.0871
-0.7382 abstract symbols 0.1089
-0.4372 accuracy that -0.0860
-0.4372 accurate to -0.0883
-0.7382 actually plug 0.1089
-0.7382 actually this -0.0245
-1.0392 add four -0.0680
-1.0392 add here -0.0870
-1.0392 add the -0.0746
-1.0392 add them -0.0323
-0.4372 adding on -0.0856
-0.4372 admit in -0.0877
-0.4372 advantage is -0.0877
-0.9569 again </s> 1.0146
-1.9935 again I -0.0748
-1.9935 again a -0.0880
-1.9935 again and -0.0845
-1.9935 again how -0.0847
-1.5283 again if 0.0898
-1.2580 again in -0.1006
-1.5283 again is -0.2045
-1.2580 again notice -0.0535
-1.5283 again observe 0.0509
-1.9935 again that -0.0882
-1.0462 again the -0.0658
-1.9935 again then -0.0520
-1.9935 again there -0.0222
-1.9935 again to -0.0850
-1.0462 again we -0.0798
-1.9935 again what -0.0067
-1.9935 again whereas -0.0037
-1.9935 again without -0.0654
-0.7382 agree however 0.1089
-0.7382 agree to -0.0439
-0.4372 agreed that -0.0766
-0.4372 ah-ha Ill -0.0614
-1.0392 aid </s> 1.4529
-1.0392 aid and -0.0675
-1.0392 aid lets -0.0284
-1.0392 aid that -0.0834
-0.2730 aim is -0.0578
-1.0392 algebra again -0.0756
-1.0392 algebra that -0.0684
-1.0392 algebra when -0.0782
-1.0392 algebra with 0.0133
-1.1361 algebraic concept -0.0654
-0.4007 algebraic equation -0.1265
-1.1361 algebraic equations -0.0707
-1.2823 algebraically 1 0.0467
-1.2823 algebraically </s> 1.4529
-0.8170 algebraically and -0.0741
-1.2823 algebraically how -0.0520
-1.2823 algebraically or -0.0837
-1.2823 algebraically that -0.0882
-0.4372 alien or -0.0837
-2.0392 all </s> 1.4529
-1.5740 all Im 0.1269
-2.0392 all about -0.0823
-2.0392 all be -0.0758
-2.0392 all except -0.0471
-2.0392 all how -0.0847
-2.0392 all know -0.0840
-2.0392 all like -0.0835
-2.0392 all of -0.0775
-2.0392 all one -0.0871
-1.5740 all ordered -0.1331
-2.0392 all our -0.0820
-2.0392 all out -0.0515
-2.0392 all pictures -0.0707
-2.0392 all points -0.0798
-2.0392 all sides 0.2424
-1.0919 all the -0.0478
-2.0392 all these 0.3471
-1.3038 all this -0.0609
-2.0392 all those -0.0323
-2.0392 all three -0.0869
-2.0392 all to -0.0796
-1.5740 all types 0.1017
-1.0027 all we -0.0084
-1.5740 all were -0.1432
-2.0392 all x -0.0878
-2.0392 all youve -0.0557
-1.2153 allow it -0.0867
-1.2153 allow this -0.0881
-1.2153 allow us -0.0660
-0.4799 allow x -0.4184
-0.2648 allowed to -0.4076
-1.2823 allowed us -0.0660
-0.7382 allowing q -0.0707
-0.7382 allowing x -0.0686
-0.4372 allows us -0.0810
-0.4491 almost all -0.0477
-0.9143 almost impossible 0.1089
-1.0392 along and -0.0879
-1.0392 along but -0.0748
-1.0392 along the -0.0864
-1.0392 along with -0.0778
-0.7382 already agreed 0.1089
-0.7382 already know 0.0449
-1.6676 also 0 0.1666
-1.6676 also and -0.0845
-1.6676 also be -0.0808
-1.6676 also because -0.0752
-1.6676 also but -0.0840
-1.6676 also equal 0.0626
-1.6676 also get -0.0465
-1.6676 also how -0.0432
-1.6676 also passed 0.1089
-1.6676 also should -0.0763
-1.6676 also tangent 0.1192
-1.2024 also that -0.0486
-1.6676 also the -0.0832
-1.6676 also visualize -0.0707
-1.6676 also what -0.0831
-1.6676 also write -0.0614
-0.9143 always pick -0.0021
-0.9143 always seemed -0.0010
-0.9143 always seems -0.0037
-0.7382 am not -0.0865
-0.7382 am thinking 0.2424
-0.7382 amazing about -0.0697
-0.7382 amazing how -0.0847
-0.4372 ambiguous definition -0.0792
-0.7382 amount </s> 1.4529
-0.7382 amount of -0.0882
-1.4343 an aid -0.0010
-1.4343 an algebraic -0.0093
-1.8996 an ambiguous 0.1089
-1.8996 an analytic -0.0515
-1.8996 an answer -0.0810
-1.8996 an appearance 0.1089
-1.1641 an average 0.4760
-1.8996 an awful 0.1089
-1.8996 an entire -0.0010
-1.4343 an epsilon -0.1667
-1.8996 an exercise -0.0010
-1.8996 an eye 0.1089
-1.8996 an h -0.0814
-1.4343 an ice 0.1089
-1.8996 an important -0.0725
-1.4343 an input -0.0614
-1.8996 an instantaneous 0.1365
-1.8996 an ironclad -0.0010
-1.8996 an old -0.0471
-1.4343 an ordered 0.1525
-1.8996 an output -0.0557
-0.4372 analogy </s> 1.4529
-1.1361 analysis </s> 1.4529
-1.1361 analysis and -0.0879
-1.1361 analysis at -0.0695
-1.1361 analysis becomes -0.0021
-1.1361 analysis side -0.0654
-1.5511 analytic Geometry -0.0323
-1.0859 analytic geometry -0.0654
-1.5511 analytic information 0.1089
-1.5511 analytic now -0.0840
-1.5511 analytic part 0.1089
-1.0859 analytic problem -0.0343
-1.5511 analytic results -0.0471
-1.5511 analytic statements 0.1089
-1.0859 analytic term 0.0326
-1.5511 analytic terms -0.0830
-1.0392 analytical Geometry -0.0323
-1.0392 analytical procedures 0.1089
-0.5740 analytical terms -0.0772
-0.6048 analytically </s> 1.1031
-1.3403 analytically of -0.0862
-1.3403 analytically to -0.0883
-1.3403 analytically we -0.0521
-1.3403 analytically what -0.0263
-1.3403 analytically when 0.0331
-0.4372 anatomically in -0.0640
-2.0239 and 1 -0.3135
-2.0239 and 1+h -0.0247
-2.7594 and 12 -0.0654
-2.7594 and 2 0.0045
-2.7594 and 3 -0.0332
-2.7594 and 4 0.0354
-2.7594 and 5 -0.0792
-1.3680 and I 0.0101
-2.7594 and Ill -0.0614
-2.7594 and Im -0.0444
-2.7594 and Ive -0.0323
-2.7594 and Limits 0.1089
-2.0239 and a -0.0699
-2.7594 and above 0.2424
-2.7594 and actually -0.0010
-2.7594 and all -0.0769
-2.7594 and allowing -0.0010
-2.7594 and an -0.0724
-2.7594 and asked 0.1022
-2.7594 and at 0.0300
-2.7594 and believed 0.1089
-2.2942 and by -0.0633
-2.7594 and bypass 0.1089
-2.7594 and came -0.0471
-2.7594 and choosing -0.0010
-2.2942 and closer -0.0946
-2.7594 and coming 0.1089
-2.7594 and compute -0.0222
-2.7594 and decreasing 0.1089
-2.7594 and deltas 0.1089
-2.7594 and derivatives 0.1089
-2.7594 and dividing 0.1089
-2.7594 and falling -0.0557
-2.7594 and for -0.0858
-2.7594 and four -0.0101
-2.2942 and from -0.1697
-2.7594 and further -0.0010
-2.7594 and geometry -0.0542
-2.7594 and get -0.0752
-2.7594 and go -0.0566
-2.7594 and graphs -0.0471
-2.7594 and greater 1.0874
-2.2942 and h 0.0244
-2.7594 and have -0.0860
-2.2942 and he 0.0690
-2.0239 and hence 0.1089
-2.2942 and here -0.0389
-2.2942 and heres -0.0408
-2.7594 and his -0.0471
-2.2942 and how -0.1839
-2.0239 and if 0.0623
-2.2942 and in -0.0824
-2.7594 and instantaneous 0.0354
-2.7594 and investigate -0.0323
-2.2942 and it 0.0176
-2.7594 and l -0.0649
-2.2942 and l2 -0.0010
-2.7594 and m2 -0.0654
-2.2942 and minus -0.1734
-2.2942 and multiply 0.1017
-2.7594 and negative -0.0684
-2.7594 and notice -0.0475
-2.0239 and now -0.0651
-2.7594 and observe -0.0684
-2.0239 and one -0.0267
-2.7594 and our -0.0864
-2.7594 and outside -0.0010
-2.7594 and perhaps -0.0323
-2.7594 and picked -0.0010
-2.7594 and pictures -0.0707
-2.7594 and proceed 0.1089
-2.7594 and projecting 0.2424
-2.7594 and q -0.0707
-2.7594 and rapid 0.1089
-2.7594 and replacing -0.0010
-2.2942 and say -0.0814
-2.0239 and see -0.3483
-2.7594 and show 0.2481
-2.7594 and simply -0.0654
-2.2942 and since -0.0588
-2.2942 and smaller -0.0471
-2.2942 and so -0.0544
-2.7594 and still -0.0614
-2.7594 and suppose 0.1809
-2.2942 and t 0.3392
-2.7594 and t1 -0.0010
-1.3222 and that -0.0605
-1.0918 and the -0.0643
-1.7420 and then -0.0121
-1.8121 and therefore 0.0307
-2.7594 and things -0.0725
-1.3680 and this -0.1838
-2.7594 and thought -0.0010
-2.7594 and tighter -0.0010
-2.0239 and to -0.0329
-2.7594 and trying 0.6953
-2.7594 and two -0.0597
-2.0239 and very 0.0064
-1.5552 and we -0.0528
-2.2942 and well -0.0527
-2.0239 and what 0.0283
-2.7594 and when -0.0851
-2.7594 and which -0.0851
-2.7594 and whose -0.0654
-2.7594 and worse -0.0323
-2.7594 and x -0.0366
-2.7594 and x1s 0.1089
-2.7594 and y 0.0294
-2.7594 and y1s 0.1089
-1.8121 and you 0.0028
-2.7594 and youve -0.0557
-0.4372 anecdote of -0.0215
-1.4372 angle </s> 1.4529
-0.9720 angle between -0.0733
-0.9720 angle here -0.1851
-1.4372 angle is -0.0498
-1.4372 angle phi -0.0823
-0.7017 angle that -0.0373
-0.4372 angles-- you -0.0142
-1.2153 another example -0.0649
-1.2153 another interesting 0.0155
-1.2153 another or -0.0837
-1.2153 another point -0.0865
-0.7501 another way -0.1848
-1.7594 answer 32t -0.0010
-1.7594 answer 48 0.2424
-1.7594 answer </s> 1.4529
-1.7594 answer because -0.0100
-1.0239 answer but -0.0651
-1.7594 answer comes 0.3640
-0.7420 answer is -0.0430
-1.7594 answer should -0.0763
-1.7594 answer that -0.0515
-0.7228 answer to -0.0708
-0.4372 answers to -0.0883
-1.7989 any arbitrary 0.1089
-1.7989 any average -0.0827
-1.7989 any bearing 0.1089
-1.3337 any geometry -0.1949
-1.7989 any non-zero 0.1089
-1.3337 any other -0.0844
-1.3337 any picture -0.0301
-0.7623 any rate -0.0840
-1.7989 any smaller -0.0265
-1.7989 any textbook -0.0323
-1.3337 any time -0.0636
-1.7989 any tolerance -0.0037
-1.7989 any two -0.0433
-1.3337 any value 0.3077
-0.9143 anything but -0.0840
-0.4491 anything except -0.0010
-0.4372 apart was -0.0766
-0.4372 apparently gets -0.0166
-0.4372 appealing to -0.0875
-0.4372 appearance in -0.0877
-1.0392 appears that -0.0383
-0.5740 appears to -0.1745
-1.0392 appears very -0.0837
-1.1361 approach </s> 1.4529
-1.1361 approach is -0.0745
-1.1361 approach it -0.0867
-1.1361 approach to -0.0773
-1.1361 approach where -0.0515
-0.4372 approached a -0.0880
-1.4786 approaches 0 0.1666
-0.5313 approaches a -0.1465
-0.4611 approaches three 0.0353
-0.4372 approximated as -0.0871
-1.2153 approximation </s> 1.4529
-1.2153 approximation curve -0.0744
-1.2153 approximation for 0.0389
-1.2153 approximation gets -0.0763
-0.7501 approximation to -0.1846
-0.4372 approximations we -0.0763
-0.3930 arbitrarily close 0.5367
-1.3403 arbitrarily equal 0.0626
-0.8750 arbitrarily small -0.0215
-1.3403 arbitrarily x -0.0741
-0.4372 arbitrary time -0.0775
-1.6621 are </s> 1.3122
-2.1274 are a -0.0831
-1.6621 are all -0.0807
-2.1274 are below 0.0155
-2.1274 are covered 0.1089
-2.1274 are drawn -0.0471
-2.1274 are equal -0.0840
-2.1274 are familiar -0.0010
-2.1274 are given -0.0740
-1.1801 are going 0.3209
-2.1274 are holding 0.1089
-2.1274 are if -0.0792
-2.1274 are important -0.0725
-2.1274 are increasing -0.0471
-2.1274 are interested 0.3830
-2.1274 are labeled -0.0010
-2.1274 are little -0.0786
-2.1274 are no -0.0798
-1.1801 are not -0.1294
-1.6621 are parallel -0.0635
-1.6621 are perpendicular 0.0326
-2.1274 are plotting -0.0010
-2.1274 are precisely 0.2481
-2.1274 are quite -0.0740
-2.1274 are saying 0.0456
-2.1274 are self 0.2424
-2.1274 are symmetric 0.1089
-2.1274 are synonyms 0.1089
-2.1274 are talking 0.3479
-2.1274 are telling 0.1089
-2.1274 are the -0.0880
-1.6621 are two -0.0780
-2.1274 are very -0.0739
-2.1274 are visualized 0.1089
-1.6621 are we -0.0876
-1.6621 are you -0.0837
-1.2153 area </s> 1.4529
-1.2153 area a -0.0853
-1.2153 area ab 0.1089
-1.2153 area b 0.0220
-0.7501 area of -0.1622
-0.4372 arises as -0.0802
-0.7382 arithmetic concepts -0.0471
-0.7382 arithmetic gets -0.0763
-0.7382 around the -0.0709
-0.7382 around this -0.0245
-0.4372 arrived at 0.0300
-2.4500 as I -0.0848
-1.2458 as a -0.1043
-2.4500 as abstract -0.0010
-2.4500 as alien 0.1089
-2.4500 as an -0.0724
-2.4500 as any -0.0817
-2.4500 as average 0.1122
-1.7146 as before 0.0857
-1.7146 as being 0.0157
-2.4500 as delta 0.1302
-1.9848 as easily 0.1089
-2.4500 as equations -0.0707
-2.4500 as extremes -0.0010
-1.9848 as follows 0.1017
-1.4134 as h -0.0740
-2.4500 as harmless 0.1089
-2.4500 as if -0.0869
-2.4500 as inside -0.0557
-2.4500 as interpolation 0.1022
-1.7146 as it -0.1655
-1.7146 as long -0.2638
-1.9848 as my -0.1949
-2.4500 as one -0.0871
-1.9848 as our -0.0738
-2.4500 as pictures 0.1049
-2.4500 as profound 0.1089
-1.9848 as saying -0.0951
-1.9848 as soon 0.2423
-1.4134 as the -0.0477
-2.4500 as they -0.0614
-2.4500 as this -0.0245
-1.4326 as to -0.4092
-0.7341 as we -0.0481
-2.4500 as well -0.0798
-2.4500 as weve -0.0471
-0.8087 as x -0.3397
-2.4500 as youre -0.0725
-0.4372 aside notice -0.0475
-0.4372 ask is -0.0716
-0.9143 asked to -0.0850
-0.4491 asked what -0.0718
-0.7382 asking for -0.0802
-0.7382 asking what -0.0775
-0.4372 assignment in 0.0096
-0.4372 assignments that -0.0882
-0.4372 associate with -0.0465
-0.2730 assume that -0.0846
-0.4372 assumes this -0.0881
-0.7382 assuming </s> 1.4529
-0.7382 assuming that -0.0656
-2.0999 at 0 -0.0747
-1.3645 at a -0.0805
-1.3645 at all -0.0766
-2.0999 at an -0.0578
-1.6347 at any 0.0022
-1.3645 at delta 0.1818
-2.0999 at exactly -0.0654
-1.6347 at first -0.0519
-2.0999 at for -0.0204
-2.0999 at least 0.1089
-2.0999 at no -0.0379
-2.0999 at one -0.0871
-1.6347 at random 0.1089
-1.6347 at t 0.1686
-2.0999 at that -0.0882
-0.6214 at the -0.1504
-0.7597 at this -0.0291
-2.0999 at we -0.0881
-2.0999 at x -0.0555
-0.4372 attention to -0.0883
-0.4372 attribute to -0.0883
-0.4372 automatically somehow 0.3479
-0.4372 available it -0.0867
-1.8685 average is -0.0856
-1.8685 average one -0.0744
-1.8685 average pretty -0.0010
-0.4314 average rate -0.4437
-1.4033 average rise -0.0030
-0.3900 average speed 0.0211
-1.8685 average speeds -0.0010
-0.7382 away </s> 1.4529
-0.7382 away with -0.0850
-0.4372 awful lot -0.0010
-1.1167 b </s> 1.1031
-1.8521 b and -0.0845
-1.1167 b by -0.4177
-0.9048 b cubed -0.0244
-1.3869 b plus -0.0851
-0.6479 b squared -0.1276
-1.8521 b three -0.0787
-0.8156 b to -0.4822
-1.4786 back is -0.0745
-1.4786 back now -0.0840
-1.4786 back say -0.0686
-0.1383 back to -0.2564
-0.2730 backbone of -0.0815
-0.4372 background lets -0.0823
-0.4372 backwards this -0.0833
-0.4372 badly as -0.0871
-0.4372 bails us -0.0810
-1.3403 ball during 0.1314
-1.3403 ball falling -0.0557
-1.3403 ball falls -0.0614
-1.3403 ball has 0.0270
-0.6048 ball is -0.0870
-1.3403 ball was -0.0766
-0.4372 base and -0.0520
-0.4372 basic definition 0.0945
-1.0911 be 0 0.2266
-2.4825 be 32 -0.0802
-2.4825 be 6 -0.0471
-2.4825 be 9 0.1089
-1.7470 be </s> 1.1031
-1.2783 be a -0.0168
-2.4825 be able 0.3830
-2.4825 be about -0.0823
-2.4825 be above 0.2424
-2.0173 be allowed 0.1112
-2.0173 be an -0.0667
-2.0173 be any -0.0607
-2.4825 be arbitrarily 0.1365
-2.4825 be at -0.0695
-2.0173 be below 0.3212
-2.0173 be between 0.0075
-2.0173 be called -0.1672
-2.4825 be close 0.7130
-1.7470 be different -0.0431
-2.0173 be done -0.0408
-2.0173 be emphasized 0.2423
-2.4825 be entitled 0.1089
-2.0173 be equal 0.0823
-2.4825 be f 1.3737
-2.4825 be factored 0.1089
-2.4825 be greater 1.0874
-2.4825 be happening -0.0752
-1.7470 be in -0.0495
-2.4825 be inside 0.3640
-1.7470 be less 0.6285
-2.4825 be letter 0.1089
-2.4825 be many -0.0684
-2.4825 be much -0.0397
-2.4825 be ominous 0.1089
-1.7470 be on 0.3795
-2.0173 be one 0.0421
-2.4825 be only -0.0810
-2.4825 be parallel -0.0763
-1.5352 be positive -0.0159
-2.4825 be reasonably 0.2424
-2.4825 be reduced 0.1089
-2.4825 be related 0.1089
-2.0173 be rigorous -0.0134
-2.4825 be six 0.1314
-1.7470 be slightly 0.1871
-2.4825 be sort 0.3830
-2.4825 be studied 0.1089
-1.7470 be sure 0.1046
-2.4825 be tangent -0.0725
-2.0173 be that -0.0378
-1.4651 be the -0.0804
-2.4825 be three 0.0363
-2.4825 be time -0.0849
-2.4825 be today -0.0614
-1.7470 be what -0.3360
-1.5352 be within -0.0001
-2.4825 be written 0.1089
-2.4825 be x -0.0197
-0.4372 bearing on 0.2849
-0.4372 beauty of -0.0862
-0.9143 became 32 -0.0407
-0.9143 became arbitrarily -0.0265
-0.9143 became suspicious 0.1089
-1.5163 because 3 -0.0827
-1.5163 because I -0.0874
-1.5163 because it -0.0867
-1.5163 because its -0.0817
-1.5163 because then -0.0769
-0.7809 because this -0.1092
-0.7809 because we -0.0598
-1.5163 because you -0.0142
-0.7382 become hypocrites 0.1089
-0.7382 become slopes -0.0037
-1.4786 becomes </s> 1.4529
-1.4786 becomes clear -0.0471
-1.4786 becomes less 0.9783
-1.4786 becomes precisely -0.0614
-1.4786 becomes so -0.0835
-1.4786 becomes tempted 0.1089
-1.0133 becomes that -0.0233
-0.7431 becomes the -0.0750
-1.3914 been a -0.0622
-0.9262 been different -0.1850
-1.3914 been functions -0.0471
-1.3914 been more -0.0830
-1.3914 been obliterated 0.1089
-1.3914 been parallel -0.0763
-1.3914 been referred 0.1089
-1.3914 been to -0.0796
-0.5690 before </s> 0.9594
-1.5163 before and -0.0845
-1.5163 before but -0.0840
-1.0511 before is -0.0675
-1.5163 before l1 0.2096
-1.5163 before namely 0.0460
-1.5163 before to -0.0796
-1.5163 before when 0.0331
-0.2730 begin to -0.0871
-0.4372 begins not -0.0647
-0.5690 being a -0.1351
-1.0511 being able 0.2423
-1.5163 being allowed 0.2518
-1.5163 being higher 0.2424
-1.5163 being less 0.9783
-1.5163 being that -0.0712
-1.0511 being the -0.0878
-1.1361 believe a -0.0868
-0.1888 believe that -0.0984
-0.4372 believed that -0.0753
-0.4372 belittling the -0.0880
-1.1361 belong here -0.0793
-0.1888 belong to -0.5779
-0.0919 belongs to -0.1034
-0.4007 below the -0.0569
-0.6709 below this -0.2072
-0.4372 best of -0.0775
-1.0392 better approximation -0.0037
-1.0392 better be -0.0519
-1.0392 better idea -0.0780
-1.0392 better or -0.0837
-1.7594 between 2 -0.0587
-1.7594 between epsilon -0.0260
-1.7594 between four 0.1269
-1.7594 between functions -0.0471
-1.7594 between here -0.0870
-1.7594 between numbers -0.0780
-0.7420 between one -0.3246
-1.7594 between slanty -0.0323
-1.7594 between t 0.3093
-1.7594 between t1 -0.0010
-1.7594 between the -0.0820
-1.7594 between them -0.0323
-1.2942 between these 0.2064
-1.7594 between two -0.0433
-1.7594 between x -0.0741
-0.4372 big error 0.1089
-0.7382 bigger a -0.0868
-0.7382 bigger interval -0.0311
-0.4372 biggest delta -0.0789
-0.2730 binomial theorem 0.0326
-1.4372 bit </s> 1.4529
-1.4372 bit and -0.0520
-1.4372 bit careful 0.1089
-1.4372 bit differently 0.1089
-1.4372 bit is -0.0868
-1.4372 bit more -0.0830
-1.4372 bit of -0.0882
-1.4372 bit simpler 0.1089
-1.4372 bit sketchy 0.1089
-1.4372 bit tougher 0.1089
-0.4372 black you -0.0749
-0.4372 blindly assume 0.2424
-0.7382 block </s> 1.4529
-0.7382 block as -0.0841
-0.2730 blows up -0.0289
-0.7382 board again -0.0842
-0.7382 board turns 0.1314
-0.4372 body in -0.0640
-0.4372 book clears 0.1089
-1.1361 both curves 0.0155
-0.6709 both of -0.2221
-1.1361 both the -0.0880
-1.1361 both when -0.0485
-0.4372 bracketed expression -0.0169
-0.4372 brief note 0.1089
-0.4491 bring out -0.0635
-0.9143 bring up -0.0567
-0.4372 bringing down -0.0515
-0.2730 building block 0.1089
-0.4372 businessman who -0.0684
-1.9686 but 5 -0.0347
-1.9686 but I -0.0848
-1.9686 but all -0.0432
-1.5034 but for 0.0428
-1.2332 but greater 0.7376
-1.9686 but if 0.0300
-1.9686 but in -0.0833
-1.5034 but it 0.0176
-1.9686 but lets -0.0823
-1.5034 but not -0.0670
-1.9686 but notice -0.0780
-1.9686 but now -0.0840
-1.5034 but one -0.0279
-1.9686 but our -0.0864
-1.5034 but rather -0.0323
-1.9686 but read -0.0323
-1.9686 but since -0.0740
-1.9686 but the -0.0867
-1.9686 but this -0.0245
-1.9686 but three -0.0869
-1.9686 but to -0.0439
-1.9686 but unfortunately 0.1089
-1.9686 but very -0.0739
-1.5034 but we -0.0300
-1.5034 but what -0.0775
-1.6311 by 0 -0.0810
-1.6311 by 16 -0.1019
-1.3492 by 3 0.0015
-2.3666 by 32t -0.0010
-1.3492 by a -0.1059
-2.3666 by adding 0.1089
-2.3666 by allowing -0.0010
-1.3300 by b -0.0529
-2.3666 by changing 0.1089
-2.3666 by choosing -0.0010
-1.9014 by definition -0.0504
-1.9014 by delta -0.0105
-2.3666 by epsilon -0.0863
-2.3666 by equating 0.1089
-2.3666 by finding 0.2096
-2.3666 by geometry -0.0542
-2.3666 by how -0.0432
-1.9014 by itself 0.0914
-2.3666 by one -0.0840
-1.9014 by our -0.0841
-2.3666 by projecting 0.2424
-1.9014 by s -0.1210
-2.3666 by saying -0.0814
-2.3666 by side -0.0654
-1.9014 by taking 0.1089
-2.3666 by that -0.0836
-0.4981 by the -0.5171
-2.3666 by this -0.0881
-1.3492 by three -0.0355
-2.3666 by x -0.0225
-0.4372 bypass this -0.0735
-0.4372 calculus when 0.0331
-1.6133 call 0 -0.0136
-1.6133 call coordinate 0.1089
-1.6133 call epsilon -0.0260
-0.8778 call it -0.0827
-1.6133 call l -0.0120
-1.6133 call l1 0.2096
-1.6133 call our -0.0820
-1.1480 call the -0.0857
-0.6660 call this -0.0425
-1.3403 called a -0.0658
-1.3403 called interpolation -0.0323
-0.8750 called l 0.0166
-1.3403 called numbers -0.0780
-1.3403 called points -0.0798
-1.3403 called simultaneous 0.1022
-1.3403 called this -0.0869
-1.0392 came all -0.0520
-1.0392 came along -0.0471
-1.0392 came down -0.0166
-1.0392 came time -0.0849
-1.7428 can also -0.0696
-2.2080 can always -0.0323
-2.2080 can assume 0.2424
-0.8166 can be -0.1177
-2.2080 can call -0.0780
-2.2080 can could -0.0772
-2.2080 can deduce 0.1089
-2.2080 can distort -0.0010
-1.7428 can divide -0.0281
-2.2080 can either -0.0471
-2.2080 can even -0.0471
-2.2080 can find -0.0772
-2.2080 can geometrically -0.0557
-1.4726 can get -0.0748
-2.2080 can happen -0.0471
-1.7428 can identify 0.0579
-2.2080 can in -0.0779
-2.2080 can locate -0.0323
-1.1715 can make -0.1594
-1.7428 can measure 0.0298
-1.1715 can now -0.0983
-2.2080 can raise -0.0323
-2.2080 can say -0.0475
-1.4726 can see 0.1810
-2.2080 can sketch -0.0010
-2.2080 can solve 0.2518
-2.2080 can study -0.0752
-1.2607 can think -0.1562
-2.2080 can to -0.0439
-2.2080 can utilize 0.1089
-1.7428 can we -0.0746
-0.4372 cancel an -0.0832
-0.4372 canceling these -0.0729
-0.4372 cancellation again -0.0378
-0.2730 cannot divide -0.0450
-1.2153 cant divide -0.0740
-1.2153 cant do -0.0815
-0.4799 cant draw -0.2409
-1.2153 cant solve 0.2518
-0.4372 care of -0.0882
-0.4372 careful here -0.0870
-0.4372 careless </s> 1.4529
-0.4372 cares whether 0.0076
-0.4372 carry the -0.0867
-0.7686 case </s> 0.9594
-1.7159 case I -0.0229
-1.7159 case all -0.0847
-1.7159 case equals -0.0608
-1.7159 case every 0.1022
-1.7159 case in -0.0877
-1.7159 case is -0.0716
-1.7159 case notice 0.1931
-1.2507 case of -0.1622
-1.7159 case phi 0.1332
-1.7159 case the -0.0851
-1.2507 case we -0.0423
-1.7159 case where -0.0515
-1.7159 case will -0.0854
-1.0392 cases as -0.0871
-1.0392 cases we -0.0684
-1.0392 cases what -0.0877
-1.0392 cases where -0.0763
-0.9143 certain inequality -0.0471
-0.9143 certain insights 0.1089
-0.9143 certain problems -0.0471
-1.1361 certainly any -0.0817
-1.1361 certainly is -0.0868
-1.1361 certainly our -0.0820
-1.1361 certainly this -0.0245
-1.1361 certainly within -0.0587
-0.4372 chances are -0.0854
-0.9143 change of -0.0815
-0.9143 change the -0.0880
-0.9143 change we -0.0828
-0.4372 changes the -0.0880
-0.4372 changing the -0.0875
-0.4372 cheat again -0.0842
-0.4372 check out 0.0357
-0.7382 chocolate </s> 1.4529
-0.7382 chocolate will -0.0854
-0.4372 choice of -0.0882
-0.9143 choose an -0.0724
-0.9143 choose delta -0.0789
-0.9143 choose it 0.0151
-0.7382 choosing an -0.0724
-0.7382 choosing x -0.0878
-0.4372 chosen any -0.0680
-0.4899 circle </s> 0.9594
-1.4372 circle I -0.0874
-1.4372 circle is -0.0868
-1.4372 circle than -0.0629
-1.4372 circle which 0.0460
-0.9720 circle x -0.1603
-1.0392 clear example -0.0807
-1.0392 clear is -0.0716
-1.0392 clear then -0.0769
-1.0392 clear this -0.0854
-0.4372 clears up -0.0567
-1.2507 close enough -0.1053
-1.7159 close in -0.0877
-0.0746 close to -0.3298
-0.5740 closer and -0.2271
-0.5740 closer to -0.0734
-0.4372 coincide intuitively -0.0654
-0.7382 colloquially Ill -0.0614
-0.7382 colloquially such 0.2932
-1.5833 come arbitrarily -0.0684
-0.6360 come back 0.2993
-1.5833 come in -0.0877
-1.5833 come out -0.0515
-1.5833 come over -0.0567
-1.5833 come to -0.0439
-0.6360 come up 0.1547
-1.5833 come within 0.2124
-1.1361 comes naturally 0.1089
-0.1888 comes up -0.0566
-0.4372 coming over -0.0567
-2.0806 comma 0 -0.0861
-1.3452 comma 12 0.0402
-0.4130 comma 2 0.0057
-1.6154 comma 23 0.0326
-1.0632 comma 3 0.0009
-2.0806 comma 4 -0.0684
-1.0441 comma 5 -0.0075
-2.0806 comma h -0.0671
-2.0806 comma minus -0.0598
-0.8764 comma y -0.0404
-0.4372 common </s> 1.4529
-0.4372 comparison to -0.0821
-0.4372 complete this -0.0820
-0.4372 completely different -0.0740
-0.2730 completing the -0.2202
-0.9143 complicated or -0.0837
-0.9143 complicated situations 0.1089
-0.9143 complicated than -0.0864
-1.1361 computation </s> 1.4529
-1.1361 computation and -0.0819
-1.1361 computation it -0.0828
-1.1361 computation of -0.0882
-1.1361 computation the -0.0814
-0.4372 computational depth 0.1089
-0.4372 computationally we -0.0870
-1.5833 compute an -0.0578
-1.5833 compute f 1.3737
-1.5833 compute just -0.0541
-0.8478 compute s -0.1019
-0.6360 compute the -0.5731
-1.1181 compute this -0.0488
-1.1181 compute where -0.0708
-0.4372 computed the -0.0808
-1.2823 concept called -0.0684
-1.2823 concept falls -0.0614
-1.2823 concept just -0.0825
-1.2823 concept known 0.2424
-0.8170 concept of -0.2245
-1.2823 concept stays 0.1089
-1.0392 concepts are -0.0854
-0.5740 concepts called -0.0471
-1.0392 concepts to -0.0883
-0.4372 concerned with -0.0850
-0.7382 conclude that -0.0836
-0.7382 conclude todays 0.1089
-0.4372 concrete evidence 0.1089
-0.4372 cone and -0.0520
-0.4372 configuration of -0.0215
-0.4372 confuse the -0.0863
-0.9143 consider a -0.0658
-0.4491 consider the -0.0861
-0.4372 consisted of -0.0815
-0.4372 contemplating and -0.0865
-1.1361 continue in -0.0583
-1.1361 continue on -0.0856
-0.6709 continue this -0.0827
-1.1361 continue to -0.0773
-0.2730 conveniently in -0.1539
-0.4372 conventional symbol -0.0010
-0.4372 coordinate geometry -0.0542
-0.4372 coordinates have 0.0363
-0.4372 cord drawn -0.0471
-0.7382 correct answer -0.0455
-0.7382 correct we -0.0763
-0.4372 correlate the -0.0884
-0.4372 correspond to -0.0883
-0.4372 corresponds to -0.0864
-1.5833 could be -0.0519
-1.5833 could continue 0.0155
-1.5833 could draw -0.0786
-0.6360 could have -0.0477
-1.5833 could just -0.0541
-1.5833 could now -0.0840
-1.5833 could take -0.0021
-1.5833 could tell -0.0010
-1.5833 could therefore -0.0707
-1.5833 could try 0.6308
-1.5833 could use -0.0752
-0.7382 couldnt I -0.0848
-0.7382 couldnt the -0.0838
-0.2730 couldve been -0.0134
-0.4372 counterexample is -0.0883
-1.2024 course </s> 1.3122
-1.6676 course develops 0.1089
-1.6676 course if -0.0170
-1.6676 course in -0.0877
-0.7203 course is -0.0330
-1.6676 course somebody -0.0323
-1.6676 course that -0.0684
-1.2024 course the -0.0781
-1.6676 course there 0.0564
-1.2024 course this -0.0182
-1.6676 course we -0.0856
-0.4372 courses namely -0.0471
-0.4372 covered in -0.0833
-0.4372 covering a -0.0868
-0.4372 cream cone 0.1089
-0.2730 criteria for 0.0428
-0.4372 crosses the -0.0864
-0.9143 crucial at -0.0057
-0.9143 crucial greater 1.0874
-0.9143 crucial that -0.0873
-0.4372 crux of -0.0847
-1.0392 cube </s> 1.4529
-1.0392 cube over 0.0575
-0.5740 cube whose 0.0107
-1.2823 cubed </s> 1.4529
-1.2823 cubed b -0.0705
-0.8170 cubed is -0.0634
-0.8170 cubed plus -0.0015
-1.2823 cubed suggesting 0.1089
-0.7382 curriculum </s> 1.4529
-0.7382 curriculum today -0.0614
-1.0084 curve </s> 0.9594
-1.9557 curve a -0.0831
-1.4905 curve and -0.0695
-1.4905 curve at -0.1106
-1.9557 curve because -0.0100
-1.9557 curve by -0.0688
-1.9557 curve from -0.0835
-1.9557 curve had -0.0798
-1.9557 curve here 0.0945
-1.9557 curve if 0.0300
-1.9557 curve in 0.0096
-1.2202 curve is -0.0712
-1.4905 curve itself -0.0134
-1.9557 curve like 0.0805
-1.9557 curve of -0.0215
-1.9557 curve only -0.0810
-1.9557 curve over -0.0858
-1.9557 curve plotting -0.0010
-1.9557 curve rises 0.1089
-1.9557 curve that -0.0882
-1.9557 curve the -0.0814
-1.9557 curve was -0.0660
-1.9557 curve what -0.0877
-1.9557 curve which -0.0851
-1.9557 curve y 0.0294
-0.6709 curves </s> 1.3122
-1.1361 curves are -0.0854
-1.1361 curves at -0.0695
-1.1361 curves its -0.0494
-0.4372 customary to -0.0883
-0.4372 cut you -0.0874
-0.4372 cylinder in -0.0132
-0.9143 danger is -0.0877
-0.9143 danger that -0.0860
-0.9143 danger there 0.0564
-0.5740 deal of -0.2280
-0.5740 deal with -0.0740
-0.4372 dealing with -0.0850
-0.4372 deals with 0.0133
-0.4372 deceptive as -0.0871
-0.4372 decrease </s> 1.4529
-0.4372 decreasing and -0.0879
-0.4372 deduce about -0.0823
-1.2153 define m -0.0323
-1.2153 define or -0.0837
-0.2680 define the -0.3133
-0.4372 defined to -0.0883
-0.4372 defining instantaneous 0.1365
-1.6676 definition be -0.0845
-1.6676 definition for 0.0389
-1.6676 definition if 0.0001
-1.2024 definition is -0.0487
-1.6676 definition lets -0.0284
-1.6676 definition notice 0.1931
-0.4634 definition of -0.1340
-1.6676 definition says -0.0752
-1.6676 definition we -0.0521
-1.6676 definition what -0.0877
-0.4372 definitions of -0.0882
-0.7382 degrees </s> 1.4529
-0.7382 degrees is -0.0883
-1.6532 delta </s> 1.3122
-2.1184 delta and -0.0879
-1.6532 delta approach -0.0200
-2.1184 delta but -0.0625
-2.1184 delta by -0.0868
-2.1184 delta definition -0.0792
-2.1184 delta equals -0.0621
-1.6532 delta greater 0.9468
-2.1184 delta has 0.0270
-2.1184 delta looks -0.0323
-2.1184 delta notation -0.0323
-1.6532 delta of -0.0466
-1.6532 delta such 0.1525
-1.6532 delta to -0.0334
-2.1184 delta will 0.1102
-0.4025 delta x -0.1018
-0.7782 delta y -0.1102
-0.4372 deltas seem 0.0460
-1.0392 denominator and -0.0675
-1.0392 denominator is -0.0802
-1.0392 denominator to -0.0339
-1.0392 denominator which 0.0460
-0.1788 depend on 0.3292
-0.4372 depended on -0.0797
-0.4372 depends on 0.2849
-0.4372 depth in -0.0583
-0.7382 derivative </s> 1.4529
-0.7382 derivative the -0.0867
-0.4372 derivatives and -0.0879
-0.6709 detail </s> 1.3122
-1.1361 detail as -0.0001
-1.1361 detail because -0.0100
-1.1361 detail on 0.2849
-0.4372 detail-- in -0.0833
-0.4372 determined by 0.0773
-0.4372 develop recipes -0.0010
-0.4372 development of -0.0215
-0.4372 develops </s> 1.4529
-0.7382 device and -0.0845
-0.7382 device that -0.0860
-0.4372 devote the -0.0884
-1.5163 diagram </s> 1.4529
-1.5163 diagram I -0.0874
-1.5163 diagram and -0.0879
-1.5163 diagram as -0.0871
-1.5163 diagram at -0.0785
-1.5163 diagram because -0.0752
-1.0511 diagram here -0.0679
-1.5163 diagram it -0.0828
-1.5163 diagram that -0.0515
-1.0511 diagram you -0.0128
-1.5833 did </s> 1.4529
-0.5659 did not -0.0439
-1.5833 did on 0.2849
-1.5833 did that -0.0766
-1.5833 did was -0.0846
-0.8478 did we -0.0795
-1.5833 did with -0.0778
-1.2823 difference between -0.0660
-0.8170 difference is -0.2025
-1.2823 difference means -0.0019
-1.2823 difference of -0.0874
-0.8170 difference whether 0.0278
-1.4786 different and -0.0696
-1.4786 different curve -0.0838
-1.4786 different distance -0.0311
-1.0133 different equations 0.0429
-1.0133 different lines -0.0763
-1.4786 different pairs -0.0614
-1.4786 different question -0.0649
-1.4786 different the -0.0796
-1.4786 different what -0.0263
-0.0919 differential Calculus 0.0270
-0.4372 differently </s> 1.4529
-1.0392 difficult </s> 1.4529
-1.0392 difficult arithmetic -0.0010
-1.0392 difficult problem -0.0649
-1.0392 difficult rationalization 0.1089
-1.0392 difficulty </s> 1.4529
-1.0392 difficulty in -0.0877
-1.0392 difficulty involved -0.0010
-1.0392 difficulty that -0.0873
-0.9143 dimension problem -0.0807
-0.4491 dimension to -0.0852
-1.0392 dimensions </s> 1.4529
-1.0392 dimensions just -0.0705
-0.5740 dimensions to -0.0830
-0.4372 discourse here 0.0945
-0.7382 discussion in -0.0132
-0.7382 discussion it -0.0675
-0.4372 displacement </s> 1.4529
-1.6413 distance and -0.0879
-1.6413 distance between -0.0810
-1.6413 distance divided 0.9113
-1.6413 distance from -0.0318
-0.9058 distance here 0.1265
-1.1761 distance is -0.2113
-1.6413 distance machine -0.0323
-1.6413 distance of -0.0882
-1.6413 distance s -0.0707
-1.1761 distance that -0.1790
-1.6413 distance traveled 0.1089
-1.6413 distance versus -0.0010
-0.7382 distances is -0.0498
-0.7382 distances mean -0.0772
-0.9143 distinguish between -0.0810
-0.9143 distinguish this -0.0735
-0.9143 distinguish when 0.0331
-0.4372 distinguishing what -0.0831
-0.7382 distort the -0.0746
-0.7382 distort this -0.0881
-1.4786 divide a -0.0730
-0.4611 divide by -0.1045
-1.4786 divide six -0.0557
-1.4786 divide the -0.0709
-1.0133 divide this -0.2072
-0.0458 divided by -0.1653
-1.4372 divided into -0.0752
-0.4372 dividing by 0.0773
-1.7849 do </s> 1.3122
-2.2501 do I -0.0769
-2.2501 do believe 0.3640
-2.2501 do for -0.0858
-2.2501 do get -0.0752
-2.2501 do here -0.0445
-2.2501 do in -0.0132
-0.6668 do is -0.1347
-2.2501 do it -0.0867
-2.2501 do next -0.0772
-0.6368 do not -0.1389
-2.2501 do now -0.0748
-2.2501 do over 0.0575
-2.2501 do something -0.0807
-1.7849 do that -0.0659
-2.2501 do the -0.0884
-2.2501 do there -0.0772
-1.5146 do this -0.0608
-2.2501 do to -0.0883
-2.2501 do today -0.0614
-1.2135 do we -0.1196
-2.2501 do what 0.0138
-2.2501 do when -0.0782
-1.0459 do you -0.1016
-0.9143 document </s> 1.4529
-0.9143 document is -0.0883
-0.9143 document well -0.0798
-0.9262 does it -0.2235
-1.3914 does next -0.0542
-0.4441 does not -0.2054
-1.3914 does that -0.0882
-1.3914 does this -0.0881
-0.9143 doesnt give 0.0956
-0.9143 doesnt lend 0.1089
-0.9143 doesnt that -0.0882
-0.9143 doing recall -0.0010
-0.9143 doing the -0.0746
-0.9143 doing this -0.0524
-1.2823 done and -0.0865
-1.2823 done exactly -0.0169
-1.2823 done in -0.0583
-0.5468 done is -0.0876
-1.2823 done unless -0.0471
-1.5511 dont </s> 1.4529
-1.5511 dont become -0.0010
-1.5511 dont believe 0.3640
-1.5511 dont confuse 0.1089
-1.5511 dont get -0.0752
-1.5511 dont know -0.0748
-1.5511 dont replace 0.2518
-1.0859 dont think -0.0684
-1.5511 dont want -0.0705
-1.0859 dont we -0.0820
-1.5511 dont wind 0.3479
-0.4372 doubled back -0.0740
-1.0859 down here -0.0775
-1.5511 down just -0.0825
-1.0859 down like -0.0602
-1.0859 down the -0.0882
-1.5511 down these 0.3471
-0.8157 down to -0.0782
-1.5511 down vertical 0.1089
-1.5511 down what -0.0775
-1.6413 draw </s> 1.4529
-0.9058 draw a -0.0397
-1.6413 draw in 0.0096
-1.6413 draw it -0.0675
-1.6413 draw neat 0.1089
-0.4371 draw the -0.2747
-1.6413 draw to -0.0864
-1.6413 draw x -0.0197
-0.4372 drawing the -0.0765
-1.0392 drawn from -0.0835
-1.0392 drawn serves 0.1089
-1.0392 drawn the -0.0777
-1.0392 drawn to -0.0864
-0.4372 drew over 0.0575
-0.4372 drop the -0.0884
-0.4372 dropped </s> 1.4529
-0.4372 duck the -0.0880
-0.4007 during the -0.4281
-1.1361 during this -0.0881
-1.1361 during which -0.0851
-0.9143 each case -0.0802
-0.4491 each of -0.1622
-0.4372 earlier that -0.0882
-0.2730 early in -0.1311
-1.0392 easier it 0.0151
-1.0392 easier the -0.0765
-0.5740 easier to -0.0609
-0.4372 easiest way -0.0809
-0.7382 easily as -0.0001
-0.7382 easily have -0.0860
-0.0996 easy to -0.1209
-0.4372 effect I -0.0815
-0.4372 eight pieces -0.0323
-1.0392 either be -0.0872
-1.0392 either case -0.0802
-1.0392 either ratio -0.0557
-1.0392 either we -0.0826
-0.4372 electricity works 0.2424
-0.4372 elementary Algebra -0.0010
-0.4372 else in -0.0640
-0.4372 emphasis so -0.0835
-0.7382 emphasize that -0.0873
-0.7382 emphasize this -0.0869
-0.1788 emphasized in 0.0493
-0.9143 end of -0.0882
-0.4491 end point -0.2061
-1.3403 enough about -0.0697
-1.3403 enough for -0.0727
-1.3403 enough language 0.0197
-1.3403 enough so -0.0835
-1.3403 enough time -0.0849
-0.6048 enough to -0.0144
-0.7382 entire discussion -0.0010
-0.7382 entire lecture -0.0725
-0.4372 entitled it -0.0867
-0.4372 entries each 0.1022
-0.5473 epsilon </s> 0.2628
-0.8718 epsilon and -0.0793
-2.2632 epsilon are -0.0854
-1.7980 epsilon but -0.2032
-1.5278 epsilon delta -0.1641
-1.7980 epsilon greater 0.9468
-2.2632 epsilon in -0.0784
-2.2632 epsilon indeed 0.1089
-0.7469 epsilon is -0.0035
-1.2458 epsilon of -0.4184
-1.2267 epsilon over -0.4950
-2.2632 epsilon that -0.0586
-2.2632 epsilon then -0.0769
-2.2632 epsilon value -0.0689
-2.2632 epsilon which -0.0851
-2.2632 epsilon will 0.1102
-2.2632 epsilon you -0.0775
-0.4372 epsilons and -0.0879
-1.2332 equal 0 -0.1832
-1.9686 equal 3 -0.0332
-1.5034 equal </s> 1.3122
-1.2332 equal a -0.4210
-1.9686 equal and -0.0865
-1.9686 equal here 0.0945
-1.9686 equal length -0.0614
-1.9686 equal m2 -0.0169
-1.5034 equal parts -0.0010
-1.9686 equal the -0.0875
-0.9512 equal three -0.2011
-0.5315 equal to -0.0052
-1.9686 equal what 0.0138
-1.9686 equal zero 0.1089
-0.4372 equally important -0.0725
-1.2960 equals 1 -0.1927
-1.7781 equals 1+h -0.1672
-1.5079 equals 16t 0.0332
-1.7781 equals 2 -0.0557
-1.2259 equals 25 -0.0053
-1.2068 equals 3x 0.0435
-1.2259 equals a -0.1094
-1.7781 equals f 1.2331
-2.2433 equals l -0.0807
-2.2433 equals minus -0.0598
-0.6922 equals one -0.1490
-2.2433 equals phi 0.1953
-2.2433 equals say -0.0850
-2.2433 equals t -0.0520
-1.2068 equals three -0.1096
-1.2259 equals two -0.0844
-1.2960 equals x -0.2196
-2.2433 equals x1 -0.0763
-0.4372 equating their 0.1089
-1.0859 equation </s> 1.3122
-1.5511 equation a -0.0658
-1.5511 equation is -0.0877
-0.2109 equation of -0.2739
-1.5511 equation x -0.0741
-0.6560 equations </s> 1.1031
-1.3914 equations allows 0.1089
-1.3914 equations and -0.0879
-1.3914 equations but -0.0748
-1.3914 equations couldve 0.2424
-1.3914 equations for 0.0389
-1.3914 equations may -0.0444
-0.4372 equivalent to -0.0883
-0.4372 error to -0.0883
-0.2730 establish the -0.0865
-0.4372 estimates </s> 1.4529
-0.4372 evaluate what -0.0630
-1.0392 even if -0.0170
-1.0392 even see -0.0867
-0.5740 even though 0.0326
-0.4372 ever being -0.0752
-0.9143 every input -0.0100
-0.4491 every time -0.1861
-0.4372 everything else 0.1089
-0.4372 evidence I -0.0748
-0.7382 evident analytically -0.0684
-0.7382 evident from -0.0318
-1.2823 exactly one -0.0871
-1.2823 exactly our -0.0864
-0.8170 exactly the -0.0744
-0.5468 exactly what 0.0047
-1.2730 example </s> 1.3122
-1.7382 example finding -0.0471
-1.7382 example for -0.0623
-1.7382 example going -0.0786
-1.7382 example higher 0.2424
-1.7382 example if -0.0170
-1.7382 example in 0.0096
-1.2730 example lets -0.2104
-1.7382 example notice 0.1931
-1.2730 example of -0.0720
-1.7382 example one -0.0871
-1.7382 example suppose -0.0654
-1.7382 example take 0.0627
-1.0027 example the -0.0704
-1.7382 example why -0.0798
-0.4372 example-- notice -0.0780
-1.0392 except chocolate -0.0010
-1.0392 except in -0.0877
-1.0392 except three -0.0724
-1.0392 except vanilla 0.1089
-0.4372 excess of -0.0815
-0.7382 exercise </s> 1.4529
-0.7382 exercise that -0.0860
-0.1788 exercises </s> 1.1031
-0.4372 exhibited the -0.0875
-0.7382 exploit the -0.0832
-0.7382 exploit this -0.0881
-0.4372 explore this -0.0854
-0.4372 exponent and -0.0879
-0.4372 express the -0.0863
-1.2823 expression 32h 0.1089
-0.8170 expression by -0.2238
-1.2823 expression it 0.0151
-1.2823 expression that -0.0882
-1.2823 expression the -0.0826
-1.2823 expression x -0.0197
-0.7382 expressions apart 0.1089
-0.7382 expressions are -0.0854
-0.9143 extreme </s> 1.4529
-0.9143 extreme and -0.0865
-0.9143 extreme you -0.0850
-0.7382 extremes here 0.0945
-0.7382 extremes suggest 0.1089
-0.4372 eye sore 0.1089
-0.4372 eyes of -0.0874
-1.8996 f f 1.3737
-0.0152 f of -1.4483
-1.6924 fact I -0.0874
-1.6924 fact Ill -0.0614
-1.6924 fact if 0.0300
-1.6924 fact is -0.0618
-1.2272 fact notice -0.0814
-1.6924 fact one -0.0871
-1.6924 fact perhaps -0.0323
-1.6924 fact since -0.0740
-0.7451 fact that -0.1074
-1.6924 fact the -0.0880
-1.6924 fact this -0.0245
-1.6924 fact to -0.0842
-1.6924 fact what -0.0877
-1.6924 fact you -0.0142
-0.4372 factor this -0.0524
-0.4372 factored as -0.0153
-0.7382 fairly elementary 0.1089
-0.7382 fairly intuitive -0.0557
-0.4372 fall within 0.2124
-0.8170 fallen 16 -0.0357
-1.2823 fallen 19 0.1089
-1.2823 fallen 64 0.1089
-1.2823 fallen a -0.0868
-1.2823 fallen during -0.0557
-1.2823 fallen when 0.0082
-1.1361 falling at -0.0852
-1.1361 falling body 0.1089
-1.1361 falling object -0.0654
-1.1361 falling when 0.0082
-1.1361 falling with -0.0850
-1.2153 falls </s> 1.4529
-1.2153 falls at -0.0852
-1.2153 falls below 0.1314
-1.2153 falls freely -0.0323
-1.2153 falls in -0.0877
-1.2153 falls into -0.0752
-0.7382 familiar </s> 1.4529
-0.7382 familiar with -0.0850
-0.4491 fancy way -0.1848
-0.9143 fancy ways -0.0323
-1.1361 far </s> 1.4529
-1.1361 far enough 0.0354
-1.1361 far is -0.0883
-1.1361 far the -0.0867
-1.1361 far youve -0.0557
-0.2730 fast is -0.0487
-0.4372 feed in -0.0877
-0.4372 feel he 0.2096
-0.9143 feeling as -0.0723
-0.9143 feeling for -0.0858
-0.9143 feeling that -0.0515
-0.7431 feet </s> 1.1031
-1.0133 feet and -0.0823
-1.4786 feet at 0.0300
-1.4786 feet in 0.0096
-0.7431 feet per 0.0332
-1.4786 feet we -0.0856
-0.4372 fellow asking -0.0010
-0.4372 figure this -0.0833
-1.5833 find 0 0.1666
-1.5833 find a -0.0868
-1.5833 find delta -0.0789
-1.5833 find is -0.0802
-0.6360 find that -0.0685
-0.5467 find the -0.0751
-1.5833 find where -0.0515
-0.4372 find-- well -0.0379
-0.3038 finding a -0.0640
-1.0392 finding the -0.0880
-1.3914 first glance -0.0010
-1.3914 first lecture: 0.1089
-1.3914 first member -0.0010
-0.9262 first number -0.0395
-1.3914 first point -0.0654
-1.3914 first possibility 0.2424
-1.3914 first power -0.0444
-1.3914 first until -0.0323
-1.3914 five </s> 1.4529
-0.9262 five and -0.0626
-1.3914 five if -0.0601
-1.3914 five is -0.0638
-1.3914 five of -0.0815
-1.3914 five tallies 0.2424
-1.3914 five this -0.0869
-1.3914 five we -0.0716
-0.4372 fixed and -0.0879
-0.4372 flavor and -0.0865
-0.4372 flick the -0.0884
-0.9143 following </s> 1.4529
-0.9143 following and -0.0879
-0.9143 following set -0.0707
-0.2730 follows </s> 1.3122
-2.1775 for 2000 0.1089
-1.7123 for a -0.2225
-2.1775 for all -0.0847
-1.7123 for an -0.0667
-2.1775 for any -0.0680
-2.1775 for better -0.0471
-2.1775 for both -0.0557
